term_str,0,1,2,3,4,5,6,7,8,9,10,11,12,13,14,15,16,17,18,19,20,21,22,23,24,25,26,27,28,29,30,31,32,33,34,35,36,37,38,39,40,41,42,43,44,45,46,47,48,49,50,51,52,53,54,55,56,57,58,59,60,61,62,63,64,65,66,67,68,69,70,71,72,73,74,75,76,77,78,79,80,81,82,83,84,85,86,87,88,89,90,91,92,93,94,95,96,97,98,99,100,101,102,103,104,105,106,107,108,109,110,111,112,113,114,115,116,117,118,119,120,121,122,123,124,125,126,127,128,129,130,131,132,133,134,135,136,137,138,139,140,141,142,143,144,145,146,147,148,149,150,151,152,153,154,155,156,157,158,159,160,161,162,163,164,165,166,167,168,169,170,171,172,173,174,175,176,177,178,179,180,181,182,183,184,185,186,187,188,189,190,191,192,193,194,195,196,197,198,199,200,201,202,203,204,205,206,207,208,209,210,211,212,213,214,215,216,217,218,219,220,221,222,223,224,225,226,227,228,229,230,231,232,233,234,235,236,237,238,239,240,241,242,243,244,245
a,-0.0006972795,-0.1471609,0.0010728028,-0.06321364,-0.08733204,-0.078605406,-0.31856525,0.17662302,-0.16290623,-0.09199492,0.34069788,-0.13788056,-0.45684868,0.03043822,-0.21339646,-0.32396662,0.3952705,0.11842828,-0.26356575,0.05199958,0.087811425,-0.377005,-0.002894746,-0.06877233,0.03754127,0.18442732,-0.25721908,0.015535111,0.06472678,0.23935583,0.0698317,-0.06424305,0.059542976,-0.079338185,-0.07793212,-0.17937034,-0.19089854,-0.053682912,-0.19460726,0.0021360575,0.091816954,0.33199102,0.17659914,0.052948337,-0.10594023,-0.07457616,0.1602686,-0.08690419,0.13432994,-0.049420375,-0.17237929,-0.07770681,-0.09969419,0.04505091,-0.25021246,0.003440968,0.32520443,-0.15541583,-0.037059397,0.066382006,0.014522463,-0.044247422,-0.32010648,-0.038551647,0.14875823,0.022076009,-0.09388838,-0.099728025,0.2110761,0.24942714,0.03362738,-0.15024981,-0.18127406,-0.1579978,0.009036199,0.09299304,-0.058595866,-0.31484672,0.029821038,0.028345104,-0.06465315,-0.07796047,0.0046551386,-0.099584505,0.22826783,0.16364501,0.31368968,-0.14436243,-0.10369848,0.06723259,0.014017593,0.15446949,-0.15734768,0.040411323,0.32606852,0.33980185,-0.41903397,0.049635306,-0.19986266,0.3226197,0.06714937,-0.049153917,0.21611953,0.14717868,-0.12169708,-0.10396139,-0.03377209,0.13747957,-0.055264622,-0.28484374,0.12955824,0.1866468,0.103273846,0.19498838,0.02849684,-0.05487876,-0.0016829099,0.3688294,0.14856085,-0.3280127,0.20754683,0.16610122,-0.2416116,0.03250288,-0.32898825,0.0870526,0.27882975,0.15290323,0.012889671,0.24173623,0.053127885,-0.029061852,0.016941495,0.119257934,-0.08817538,-0.021355456,0.098327756,-0.12612991,0.17442618,0.24632418,-0.017385753,-0.063666716,-0.44546637,-0.052155036,0.15011737,-0.060262863,0.066618875,-0.18973498,0.18268754,-0.15261084,0.06410182,0.11830709,0.10629318,0.04563037,-0.27482325,-0.13237141,0.095431976,0.0052715447,-0.24440278,-0.2267521,0.043998275,0.024292652,-0.042813726,-0.19218364,-0.15174104,-0.0008507303,-0.050115075,-0.36710322,-0.14193007,0.22070494,0.04728521,0.21978515,0.09066449,0.2899252,-0.1267773,-0.1887515,-0.029245954,0.09424465,0.11064285,0.016714893,0.30616117,-0.051431715,-0.08323808,0.09981866,0.096464485,0.0353195,0.01609323,-0.199153,0.10070568,0.066359274,0.0738324,0.010877744,0.3270886,-0.07227894,-0.04203748,0.03374551,-0.3257546,-0.05504509,0.1282844,0.14765817,-0.14590558,-0.16919342,0.20970789,0.0031121655,-0.19937724,-0.06907822,0.33634642,-0.043978766,-0.26357538,0.31466404,0.03234083,0.04934524,0.059513472,-0.32768336,0.17186926,-0.13966884,0.13300204,-0.18642019,-0.09291989,0.030549869,0.15382361,0.009218414,0.037938025,-0.24639778,-0.07790339,0.03768155,0.06783845,0.12615508,-0.124993466,0.45086345,-0.0100328745,-0.2978023,-0.023445483,0.35549515,-0.09385183,0.2507161,-0.27135685,0.06479045,0.11579468,0.09699499,-0.21234603,-0.1286735,0.22991285,0.022354143,0.13410245,0.033160526
aah,0.042826068,-0.18883404,0.06252729,-0.04107038,0.028062114,-0.13928647,-0.1736628,0.028933244,-0.047123667,-0.18574019,0.3837353,-0.133632,-0.26023826,-0.015427822,-0.2386473,-0.19274597,0.24083638,0.05266972,-0.19599746,-0.0974364,0.04666179,-0.23212159,0.1009121,0.12524234,-0.0760633,0.20170212,-0.13489376,-0.06835606,-0.0075213797,0.036788143,0.08665956,0.010188656,0.079141825,-0.1583749,-0.01162735,-0.24009804,-0.12117889,-0.025253935,-0.11254052,-0.03377671,0.00645076,0.150635,0.084931396,0.21538897,-0.14362405,-0.042839166,0.22576258,-0.20868666,0.29682887,0.034293514,-0.04149281,-0.251169,-0.021138696,0.11514802,-0.16958494,0.024557885,0.24716242,-0.26200175,0.0097188605,0.07499541,0.0051942016,-0.045856908,-0.35693738,-0.13402769,0.08094342,-0.04942395,0.0050683934,0.028005648,0.15593082,0.23742384,0.05597544,-0.0717213,-0.19766541,-0.18742558,-0.14263618,-0.015241335,0.106224835,-0.26287964,-0.12734972,-0.01484439,-0.002843485,-0.029095734,0.11856454,0.011326143,0.17976403,0.036836144,0.04496571,-0.24953641,-0.08600184,0.2729522,0.06838663,0.1988426,-0.12996991,0.057702236,0.3673277,0.25919268,-0.3462661,0.14282332,-0.30346823,0.23659304,0.03584377,-0.08133617,0.16347636,0.10264041,-0.08769937,-0.19757088,0.05013892,0.013592201,-0.16880232,-0.34203106,0.024892252,0.15026717,0.055385396,0.1512621,-0.108392656,-0.026591063,0.0324034,0.51918197,0.2221608,-0.024717066,0.10471275,0.2707387,-0.20820995,-0.17027833,-0.22789744,-0.059093516,0.28302804,0.15312868,0.2945056,0.18144505,0.016335681,-0.19483495,-0.012163457,0.1547589,0.0658919,-0.01536636,0.02361113,0.04537373,0.09872543,0.11066189,0.065616205,0.056665506,-0.3569248,-0.16922149,0.02591176,0.0878648,-0.19405489,0.0058661583,0.13987474,-0.21220887,0.17686662,0.060956385,0.04223161,0.044935416,-0.3372116,-0.22190055,0.032191094,-0.091367364,-0.24653253,0.0042051836,0.12216152,0.10604043,-0.04816031,-0.21975791,-0.066784665,0.100329764,0.10333734,-0.25096005,-0.07525426,0.19303387,0.041315705,0.10583522,0.00056403293,0.03593894,-0.18040326,-0.18198921,-0.036161542,0.27428722,0.11173573,0.11761484,0.1578424,-0.16829117,-0.12778325,0.16964187,0.23930262,0.01980785,0.1136093,-0.318704,0.12260315,0.12687936,0.027985444,0.01764028,0.20919283,0.058336414,0.003954696,0.041797508,-0.2135535,-0.18277434,0.060476806,0.26382038,0.0566812,-0.18966867,0.2046168,0.05189335,-0.2211741,0.029135574,0.2973163,-0.15094386,-0.32235947,0.1399838,-0.077092305,-0.093129046,0.04986683,-0.30416805,0.16763355,0.008954158,0.18103273,-0.22844595,-0.10177849,-0.07419271,0.11973327,0.10967819,-0.088341564,-0.053397924,-0.06194051,0.0664391,-0.031116301,0.10274538,-0.18901418,0.47371867,0.0261424,-0.20601572,0.09549477,0.11327915,-0.2693867,0.012705154,-0.22773089,0.073975444,0.08397169,0.0669899,-0.22003882,-0.113883965,0.16372746,-0.05214338,0.13790873,0.050333414
about,-0.012489796,-0.0729592,-0.055093892,-0.01015751,-0.02765964,-0.09787328,-0.2463373,0.07619595,-0.06685044,-0.13102855,0.31234804,-0.13260458,-0.27802318,0.025435794,-0.15297478,-0.20732246,0.22891833,0.053451683,-0.16612126,-0.01010477,0.058123607,-0.27486032,0.045815926,0.03905048,-0.022206139,0.13281168,-0.13571392,-0.072522834,0.026510285,0.06456746,0.11085919,-0.025378656,0.04948435,-0.080674745,-0.026214536,-0.050803322,-0.1639644,-0.0245564,-0.077390894,0.011042101,-0.041610137,0.2746436,0.10337245,0.13840066,-0.1514669,-0.04180193,0.31071556,-0.16996759,0.22050825,0.037760284,0.02407993,-0.16582385,-0.12314698,0.093919896,-0.123414226,0.022957895,0.3014086,-0.24946608,-0.02505393,0.12078246,-0.033673055,-0.06858062,-0.2800543,-0.00923431,0.078423426,0.010264359,0.005061854,0.028514316,0.15525952,0.21632089,0.0043110275,-0.093759775,-0.14570187,-0.26570058,-0.11487933,0.12578449,0.03672498,-0.17928864,-0.046265345,-0.035538945,0.101486236,0.012017996,0.06552286,-0.10846998,0.22713584,0.06744298,0.20430979,-0.21100652,-0.079638846,0.16216168,-0.025002865,0.13428366,-0.15089051,0.036570407,0.31650186,0.32673666,-0.35419726,0.14678185,-0.3358774,0.31711397,-0.014915539,0.052279525,0.11760525,0.05948539,-0.01942125,-0.09971138,0.035660423,0.11824799,-0.12065786,-0.2268588,0.15241767,0.17331302,0.0754504,0.10691924,-0.041856654,0.015216943,0.024900233,0.4325084,0.104301564,-0.15398082,0.13733424,0.18430799,-0.30691785,-0.07637331,-0.24639189,0.008273968,0.2281737,0.20656492,0.17474204,0.17196,0.04858631,-0.15392984,-0.13006705,0.07247137,-0.047286365,-0.009264626,0.009686946,-0.051740747,0.07608593,0.2210025,-0.005660713,-0.06553989,-0.33755207,-0.1337488,0.11212609,0.016734103,-0.082469806,-0.039568465,0.20314825,-0.14366297,0.16667958,0.099520616,-0.016435951,0.06689627,-0.37229297,-0.15186787,-0.0025024514,-0.053707935,-0.25802755,-0.03505282,0.047318537,0.020025851,-0.098873086,-0.18681265,-0.115971416,0.0835553,0.06538333,-0.27753285,-0.11928758,0.14672783,-0.036797065,0.089257844,0.07822222,0.08783555,-0.09105667,-0.19094223,-0.020909991,0.1935625,0.015105386,0.07702414,0.16203122,-0.10360836,-0.15864289,0.09857978,0.07703816,-0.049736552,0.030263279,-0.23125508,0.020102909,0.079859,0.034445465,0.035389885,0.21450803,-0.05462607,-0.03383778,0.009880902,-0.29777673,-0.09587836,0.064664036,0.18757893,0.027208997,-0.1853223,0.2215091,-0.015062025,-0.16588418,0.034363598,0.3663537,-0.13165793,-0.2826195,0.15137507,0.008818075,-0.014502797,0.010533954,-0.34950265,0.1958272,0.0038181404,0.07615142,-0.11407005,-0.0878968,-0.059372593,0.10989807,0.087274455,-0.0059020016,-0.099192284,-0.0009101068,0.08631602,-0.024317764,0.13144416,-0.20861122,0.47898415,0.020700434,-0.12125319,0.0019829667,0.14578246,-0.16102177,0.16183777,-0.1917776,0.02256996,0.16739263,0.036211796,-0.20386995,-0.10457709,0.1229893,0.0020170086,0.18526839,0.0668919
above,0.0075412835,-0.0682348,-0.022983165,-0.0032706566,-0.0026053807,-0.059941646,-0.12754804,0.05713079,-0.051147357,-0.088242084,0.20518889,-0.08643074,-0.1703562,-0.0022322838,-0.09668338,-0.09602515,0.15372106,0.02609014,-0.08435659,-0.026808718,0.038338266,-0.1524751,0.03392844,0.023424061,-0.027681615,0.08672375,-0.08882462,-0.03734086,0.008107627,0.051542267,0.06533471,-0.010777071,0.039658405,-0.074561484,-0.012770946,-0.078286424,-0.08593751,-0.007767744,-0.0699555,-0.022220321,-0.0143914055,0.1513775,0.04432868,0.084564604,-0.075003885,-0.03152098,0.15210836,-0.101728305,0.13410859,0.02543875,-0.017405042,-0.09833112,-0.04328557,0.06687436,-0.103228666,0.004633828,0.17676567,-0.1349591,-0.01957092,0.07325531,-0.011676612,-0.046285033,-0.18068638,-0.022098025,0.05630097,-0.0061961613,-0.029407732,0.013488306,0.07846251,0.1699157,0.014014078,-0.063599765,-0.07912233,-0.13602641,-0.04947467,0.05229084,0.025544213,-0.12716313,-0.030342668,-0.0045043533,0.04006788,-0.0029863196,0.05135131,-0.039100207,0.120407745,0.0320255,0.09280325,-0.1440394,-0.058850925,0.08879615,0.0056931186,0.087262765,-0.0958203,0.015227006,0.19230427,0.1875529,-0.20572272,0.074757986,-0.17403173,0.1580619,0.00921194,0.01210959,0.10167719,0.04917328,-0.030721575,-0.07395592,0.054838818,0.053180743,-0.05360748,-0.15032801,0.057651892,0.08679066,0.03849012,0.06727499,-0.022344608,-0.00056799914,0.015920108,0.26164815,0.08131536,-0.06444069,0.08385016,0.12946874,-0.14526919,-0.03687588,-0.15908918,-0.002027679,0.14828114,0.11166599,0.10423119,0.097157694,0.008917835,-0.086781606,-0.03302529,0.049500722,-0.018492611,-0.0056608766,0.008746745,-0.011722493,0.03806574,0.12884092,0.0041554817,-0.0020558543,-0.20742027,-0.07271871,0.07001727,0.020076523,-0.06281822,-0.043293044,0.09841374,-0.09749257,0.09591222,0.06257377,0.016896758,0.03548783,-0.19669642,-0.09533049,0.00028561187,-0.050253514,-0.16543022,-0.037588034,0.048930638,0.023846127,-0.05204283,-0.12927292,-0.07511013,0.030485846,0.031581204,-0.14769022,-0.036526706,0.08754496,-0.019803384,0.06980714,0.035520885,0.08056602,-0.06743546,-0.11004313,0.0013085831,0.11015661,0.035343066,0.037329216,0.0895464,-0.056794845,-0.08334914,0.076155126,0.068478376,-0.016426008,0.048903637,-0.14523001,0.051855367,0.03902059,0.007133123,0.016541237,0.11629184,0.004976286,-0.0146811325,0.0028139963,-0.16511603,-0.08232429,0.034304924,0.10577504,0.014935092,-0.12058186,0.1098541,0.006707927,-0.11681218,-0.0024076249,0.185689,-0.05768326,-0.18574569,0.08815207,-0.0011960128,-0.0025899464,0.0014815527,-0.18283384,0.11303555,-0.025368657,0.055514533,-0.09611267,-0.06870207,-0.008273469,0.058540512,0.0559319,-0.019151324,-0.07421668,-0.0077012265,0.054164246,-0.018082133,0.07518002,-0.1290399,0.25615034,0.032867745,-0.08251775,-0.0009266443,0.09507089,-0.11871364,0.079843745,-0.1260759,0.024104148,0.09559867,0.027658613,-0.12473969,-0.05743193,0.07926894,0.0041551404,0.10682469,0.021700686
across,-0.0010124203,-0.04274408,-0.022338808,0.0012658878,0.0022996224,-0.043447353,-0.0778625,0.044151798,-0.0434262,-0.06054606,0.13447388,-0.05532753,-0.10342512,0.0037468825,-0.05790027,-0.07058491,0.093510695,0.0109503195,-0.0546292,-0.01345971,0.017504847,-0.095712356,0.02583318,0.006200135,-0.02203606,0.058238152,-0.05138377,-0.022834444,0.012397704,0.024362722,0.046795882,-0.0062613697,0.038157698,-0.04592085,-0.0056702057,-0.04031079,-0.06249153,-0.008301787,-0.047751922,-0.008027797,-0.009043802,0.089985795,0.034699813,0.047925957,-0.045308534,-0.024840873,0.09825641,-0.063001625,0.081735246,0.02067544,-0.005657206,-0.061239637,-0.03397503,0.030970555,-0.067536324,0.0039497353,0.10005195,-0.090629704,-0.007890363,0.04166302,-0.011475551,-0.023995051,-0.118719116,-0.022321276,0.041450538,-0.0014270059,-0.014534631,0.010732273,0.05098594,0.0913745,0.008702658,-0.041884545,-0.044144463,-0.081060454,-0.034344885,0.025355408,0.013867984,-0.06663839,-0.016813152,-0.0074779284,0.021862749,0.0017101421,0.03213966,-0.02942521,0.08085147,0.024047708,0.0625155,-0.07848541,-0.041176364,0.05979039,0.0041437433,0.04890647,-0.0535068,0.013399906,0.124094546,0.118090324,-0.1393418,0.051104944,-0.10421991,0.105132446,-0.0071718805,-0.0010842265,0.06298,0.030451158,-0.016136838,-0.041461237,0.022035783,0.045359403,-0.028501019,-0.09357333,0.0401239,0.05698393,0.028583635,0.043742668,-0.010905983,-0.0070480797,0.013612233,0.15635547,0.05090434,-0.047691368,0.057145726,0.072585635,-0.090352535,-0.023227628,-0.10132956,1.6401496e-05,0.086859554,0.06304487,0.061144814,0.06118062,0.0064130137,-0.061557036,-0.026737832,0.032776244,-0.0044919834,0.00089050015,0.005780578,-0.009639814,0.02965913,0.07805583,0.0047619017,-0.012185632,-0.12551096,-0.04618942,0.033171207,0.013965239,-0.036377843,-0.030166509,0.05935904,-0.06594667,0.057964977,0.025101658,0.014980826,0.02464397,-0.12644345,-0.062437207,-0.0035930416,-0.0275777,-0.10814452,-0.019246789,0.017734805,0.012060814,-0.02934142,-0.072349966,-0.04109961,0.022797039,0.019687638,-0.100821726,-0.026181363,0.055552065,-0.014517368,0.043065257,0.024530394,0.046205472,-0.04950688,-0.066644065,-0.0070502306,0.06711994,0.01581971,0.014763704,0.04811961,-0.031292614,-0.051247645,0.047136016,0.04155117,-0.0097250845,0.028288433,-0.08998155,0.03567269,0.022080412,0.011410842,0.010814174,0.07008822,-0.0036573776,-0.008441674,0.0016683976,-0.102388546,-0.049213737,0.02592124,0.066584684,0.009667443,-0.07051788,0.062272985,0.010814527,-0.07224631,0.008741629,0.119214594,-0.035667676,-0.1064288,0.062334128,0.009759924,0.0049956935,0.002705849,-0.117341764,0.07095706,-0.015960474,0.030179292,-0.062185075,-0.045096613,-0.012299396,0.041778315,0.039886605,-0.012200506,-0.042989388,-0.0067581697,0.027389899,-0.013148584,0.048014898,-0.07930833,0.16678672,0.021870177,-0.056398742,0.0067457305,0.061953407,-0.067432664,0.052544806,-0.08889396,0.024965003,0.05476309,0.01662435,-0.08399429,-0.04419229,0.04567946,0.00046143823,0.061344635,0.01797374
act,0.0007062692,-0.024733348,-0.014083569,-0.0014893425,-0.0028156126,-0.030571992,-0.052282922,0.018725503,-0.015378251,-0.04313857,0.08900961,-0.04079603,-0.07084414,0.0032298942,-0.050345663,-0.04486312,0.071479045,0.013521655,-0.034835152,-0.010640306,0.01597882,-0.06588132,0.020767003,0.010594811,-0.01439728,0.03698543,-0.034335405,-0.019383661,0.0076226364,0.019503959,0.034659717,-0.00825344,0.020673977,-0.03169664,-0.00052030553,-0.033617213,-0.03965911,-0.008672266,-0.028709017,-0.007293427,-0.0057060453,0.070089266,0.022747029,0.040301178,-0.030192843,-0.01700394,0.08065993,-0.0457275,0.062299903,0.012165011,-0.004225381,-0.04711804,-0.018186515,0.029270759,-0.03712246,0.0047958205,0.0767789,-0.06512325,-0.006352819,0.03115246,-0.009390072,-0.018387796,-0.079306655,-0.0067844423,0.02298808,0.0012879998,-0.005869413,0.011034767,0.0341181,0.07782755,0.0044076922,-0.022691522,-0.036164496,-0.07093391,-0.026955448,0.022383977,0.017525353,-0.050732233,-0.0081685595,-0.0038949866,0.024564562,0.0011397538,0.02339926,-0.017912257,0.05940131,0.011589595,0.037778977,-0.06003995,-0.032722283,0.046154127,-0.00071119505,0.036964897,-0.042015098,0.002040756,0.09018166,0.083405904,-0.09211712,0.04258004,-0.08754813,0.07237689,0.00043539066,0.0050267433,0.041225918,0.021376856,-0.0051473686,-0.030281013,0.028234616,0.028129635,-0.026227131,-0.06912575,0.033138078,0.040629588,0.01894825,0.026367186,-0.0144790895,-0.0014280486,0.0057761036,0.121014036,0.03425273,-0.027761517,0.04019613,0.05984437,-0.068031095,-0.017205045,-0.06978475,-0.00049080356,0.06147201,0.04794519,0.05863578,0.040676203,0.0054302537,-0.046348035,-0.022611061,0.024342515,-0.0065223984,-0.0016917016,0.0010718151,-0.005171276,0.014358633,0.05807984,0.0014698097,-0.0009866114,-0.08838732,-0.037242908,0.026022095,0.015362149,-0.03198123,-0.013474138,0.04951023,-0.037708085,0.0527959,0.023047503,0.011217906,0.015254099,-0.1008184,-0.041344088,-0.0043436657,-0.026777605,-0.08052837,-0.008195653,0.021272913,0.016403262,-0.026083227,-0.05210797,-0.0288738,0.01717322,0.026838763,-0.06909756,-0.019107284,0.045331035,-0.008747978,0.029605659,0.011142085,0.029204974,-0.02755185,-0.048592456,0.00641425,0.052131575,0.010881446,0.014877143,0.040119007,-0.026862934,-0.044252098,0.030705906,0.027229039,-0.011408681,0.021913206,-0.068835005,0.018281315,0.020268213,0.003846845,0.011136347,0.049740482,-0.0030241662,-0.009593092,0.000748082,-0.0805505,-0.038289387,0.016949179,0.052928545,0.00976628,-0.056882057,0.04698926,0.0022436252,-0.046358924,0.009928265,0.0901314,-0.02927492,-0.08632289,0.03796143,0.0015802003,-0.0046335175,0.0024635203,-0.08459593,0.04822557,-0.007127706,0.022559233,-0.0425599,-0.03196406,-0.012574652,0.026559342,0.030538842,-0.0110790925,-0.027718892,-0.001188831,0.0189264,-0.013957865,0.03371587,-0.064282484,0.12412098,0.0096068885,-0.033222824,-0.00047300424,0.035636805,-0.05892092,0.03553155,-0.052933984,0.010467175,0.03827189,0.011918285,-0.056664243,-0.031098807,0.03663224,0.000108376946,0.0489164,0.0035088747
after,0.00537277,-0.09809747,-0.061256167,-3.1206797e-05,0.008162435,-0.11573153,-0.18881601,0.12136678,-0.088420205,-0.14282592,0.33993146,-0.15468189,-0.27358165,-0.014331775,-0.16674437,-0.18673192,0.2529138,0.04348631,-0.12416066,-0.038876,0.047847435,-0.2551132,0.06455265,0.011260798,-0.061097156,0.14581314,-0.12580678,-0.07252683,0.027252024,0.039109685,0.126449,-0.03114731,0.09282507,-0.11394375,-0.03215367,-0.106332086,-0.15956084,-0.0241445,-0.1035046,-0.017461319,-0.01413128,0.2347878,0.09717063,0.1347291,-0.108545646,-0.06681275,0.2627565,-0.18209933,0.2135279,0.058750134,-0.005531982,-0.14418648,-0.08752704,0.08413371,-0.15948407,0.00843888,0.2597768,-0.24982555,-0.015758218,0.12863128,-0.039137013,-0.05967555,-0.27650926,-0.04908927,0.087316036,-0.010579338,-0.033565685,0.030189877,0.1382022,0.24086715,0.028629245,-0.10792239,-0.11578043,-0.23041753,-0.11487036,0.070677206,0.04323017,-0.15977989,-0.044599995,-0.016008481,0.07662052,0.0061028125,0.07276045,-0.08536136,0.21763463,0.066325545,0.15884684,-0.19777147,-0.107616715,0.16092058,-0.008487592,0.11207999,-0.12326754,0.017408878,0.33542752,0.2905732,-0.35997033,0.12532425,-0.27144313,0.28100723,-0.016715141,-0.0025273173,0.17512968,0.081939824,-0.031647846,-0.10489566,0.06833201,0.12024949,-0.08326557,-0.23009749,0.09238972,0.14859599,0.0598232,0.11045765,-0.03541155,-0.0010468189,0.04334402,0.42124915,0.12627876,-0.11026519,0.1398593,0.1901348,-0.23395461,-0.057740413,-0.25039622,0.014774754,0.23217383,0.16575578,0.1730693,0.16608368,0.030432949,-0.15528175,-0.073558524,0.07682765,-0.018376796,-0.018218985,0.009050454,-0.033968896,0.065850906,0.19972019,0.005158617,-0.023545604,-0.30761337,-0.12918651,0.08579325,0.041350756,-0.08798013,-0.067299604,0.16808939,-0.16178942,0.16607141,0.08336484,0.032379832,0.05465097,-0.3250334,-0.14895399,-0.01726148,-0.06964077,-0.27141342,-0.044687394,0.06296871,0.03373437,-0.083590195,-0.18611163,-0.0955489,0.055995952,0.053556636,-0.25955325,-0.077985965,0.14332195,-0.03799304,0.11303028,0.045393106,0.110434145,-0.11533915,-0.17472076,0.0076665706,0.19354102,0.024115851,0.04070239,0.13884729,-0.079092026,-0.13205767,0.11514021,0.09869626,-0.036342964,0.06585906,-0.25157726,0.08944165,0.04621953,0.020341495,0.034156032,0.18708205,-0.007123022,-0.02077503,-0.00010054465,-0.26985368,-0.12604523,0.07623765,0.15908517,0.030400725,-0.16809942,0.16972075,0.01451428,-0.16229041,0.030978909,0.30818775,-0.07778552,-0.27380836,0.14152826,0.022496896,0.0019408067,0.00223353,-0.3266421,0.17861958,-0.046700004,0.077288285,-0.17701027,-0.11729117,-0.04578785,0.11077998,0.115852654,0.0043636067,-0.11001507,-0.014501974,0.07046989,-0.037547298,0.14782754,-0.20708972,0.4231488,0.06815663,-0.11374263,0.014804394,0.16980436,-0.16194656,0.12325333,-0.21894535,0.055338234,0.13158295,0.056371827,-0.2217861,-0.118245274,0.12744826,0.007827253,0.1600437,0.038573746
again,-0.041613083,-0.08919266,-0.02880269,0.00083752035,-0.039839815,-0.18707821,-0.29877192,0.02116876,0.019551562,-0.22427765,0.35513481,-0.15935276,-0.2978668,-0.015470486,-0.18832959,-0.14837828,0.27296844,0.031058911,-0.11832908,-0.10360566,0.06196964,-0.248989,0.08291698,0.07526514,-0.100829914,0.10515649,-0.071866766,-0.095006414,0.0134148,0.089962915,0.12917277,-0.0165347,0.028170595,-0.16349141,-0.014075942,-0.12347013,-0.11983917,-0.052066375,-0.030632433,-0.0675006,-0.1092104,0.320086,0.06277562,0.19465317,-0.18149635,-0.055299148,0.35713726,-0.19134235,0.26665044,0.0743058,0.08729801,-0.21517442,-0.07383071,0.1622191,-0.114294544,0.058743745,0.30871248,-0.28531572,-0.03395694,0.1139386,-0.08087737,-0.0979298,-0.29006922,0.010405599,0.062906936,-0.006534125,0.034473952,0.103808396,0.12536156,0.29196256,-0.04234558,-0.08277326,-0.09832025,-0.29636902,-0.1798055,0.10164387,0.13750775,-0.16774237,-0.09631821,-0.04402431,0.12917848,0.0708686,0.12279029,-0.10354378,0.21739125,-0.011601909,0.1803337,-0.25466928,-0.065304086,0.23856607,-0.03953635,0.16289356,-0.14528556,0.03921937,0.35516113,0.3589267,-0.33004543,0.20512423,-0.37846744,0.3048674,-0.010144047,0.098472565,0.16965914,0.09244871,0.008052989,-0.09585907,0.15846135,0.08069516,-0.14743367,-0.17718363,0.13405977,0.1464211,0.050707385,0.11982711,-0.12788779,0.043628953,0.05554238,0.511958,0.14900266,-0.08341878,0.07995653,0.2506135,-0.2996141,-0.109694004,-0.2189076,-0.031122081,0.26263344,0.20640601,0.31205696,0.09306194,0.03673479,-0.17303199,-0.16392273,0.08075574,0.028598277,-0.06671186,-0.03366697,-0.016907668,0.014264145,0.21221031,0.058814395,-0.0014476225,-0.32861507,-0.15107502,0.100193605,0.09179476,-0.17050233,0.07170445,0.20676437,-0.13216114,0.2268946,0.14903677,0.017475728,0.07099692,-0.43517008,-0.12453161,-0.004363829,-0.15811568,-0.30881858,0.057465266,0.18534398,0.06492894,-0.1084661,-0.21168348,-0.10398088,0.060860626,0.12138588,-0.21363437,-0.039533596,0.13207841,-0.07881566,0.0062264106,0.06318679,0.02898604,-0.030185582,-0.20407136,-7.929556e-05,0.24623601,0.046717215,0.094905384,0.09104346,-0.17606185,-0.19471261,0.104936704,0.084978,-0.0782034,0.064223535,-0.23540822,0.034549456,0.11308464,0.012316689,0.06020268,0.18217772,0.029999541,-0.077374466,0.048921715,-0.29872137,-0.1842923,0.01272537,0.18193458,0.08507481,-0.2059028,0.2350837,-0.03399644,-0.1481674,0.056186434,0.3762273,-0.11933063,-0.3519207,0.084238715,-0.022668099,-0.0538279,-0.0009612706,-0.33366728,0.22820264,0.018793438,0.068785496,-0.09545634,-0.1440622,-0.06940803,0.043556213,0.14084795,-0.07687585,-0.06527346,0.029106973,0.11141774,-0.0057336963,0.15323126,-0.28369063,0.4613598,0.02113723,-0.014886297,0.020620763,0.06093999,-0.20073786,0.059641086,-0.19509137,0.02050649,0.19612877,-0.0038811185,-0.1994375,-0.05953244,0.116166554,0.042782817,0.28382418,0.060248625
age,-0.0038818582,-0.059674192,-0.025387598,-0.0018298127,-0.0021107162,-0.06944661,-0.124258436,0.057420515,-0.053528402,-0.0938086,0.20215455,-0.09623868,-0.16698036,-0.0078684725,-0.11316654,-0.09303466,0.16011284,0.023348605,-0.07718204,-0.032150507,0.04225116,-0.14866555,0.03613223,0.020717533,-0.034644697,0.085378096,-0.08485639,-0.03419224,0.013674041,0.04856951,0.072159514,-0.025527902,0.05436036,-0.07605253,-0.011593264,-0.0813395,-0.08305225,-0.011350174,-0.0734969,-0.033285514,-0.0066689947,0.14333206,0.051355198,0.07989075,-0.06205342,-0.03873864,0.15642703,-0.10256143,0.1347767,0.0303347,-0.013807797,-0.09512149,-0.03933733,0.059529427,-0.10369452,0.012697826,0.17111269,-0.12951382,-0.024194404,0.069394365,-0.019631196,-0.04468259,-0.18907745,-0.032876812,0.061529297,-0.001194242,-0.023825446,0.010566401,0.078598,0.17376558,0.0052179312,-0.054871902,-0.072914466,-0.13751872,-0.053141978,0.04974032,0.027252452,-0.11752009,-0.014468634,-0.009198486,0.039133936,-0.002974254,0.06092156,-0.04572843,0.12978995,0.026604844,0.0857172,-0.14405853,-0.06791255,0.088687,0.0019278203,0.07679189,-0.090803005,0.0112974,0.20417018,0.18849787,-0.21277346,0.08252269,-0.17433389,0.1557071,-0.0003559836,-0.0048590614,0.10677549,0.048771188,-0.030739509,-0.07758085,0.060848262,0.05023741,-0.05179696,-0.15412286,0.051331162,0.086445324,0.030985495,0.06053119,-0.015924096,-0.003071393,0.01600367,0.2553431,0.08205543,-0.07258319,0.08688076,0.12753965,-0.15008129,-0.030077638,-0.16191165,0.013064307,0.15936759,0.10891656,0.104857974,0.10329176,0.0038871032,-0.10245055,-0.03501587,0.050175045,-0.010780909,-0.0047424277,0.008890045,-0.011514008,0.039658822,0.1271816,0.004209803,0.0002779089,-0.20479606,-0.07327313,0.06365616,0.041746452,-0.05838361,-0.045351453,0.09861356,-0.09110245,0.10469654,0.05501798,0.024428198,0.038432635,-0.20222953,-0.094278514,-0.0066715414,-0.052510325,-0.17699455,-0.029612444,0.05233396,0.024030471,-0.045510266,-0.1255485,-0.0714161,0.018132841,0.036600873,-0.14253333,-0.031223938,0.09260888,-0.01256237,0.07171067,0.03502108,0.073778205,-0.06710765,-0.109196715,-0.0067750067,0.11186946,0.031592574,0.029297892,0.08411918,-0.045620076,-0.09782746,0.076532334,0.07110705,-0.016619904,0.059156347,-0.15968007,0.058802336,0.03582233,0.009975366,0.015897665,0.11329337,0.0018495338,-0.015936304,-0.0053565465,-0.1764296,-0.08845957,0.038837165,0.09546133,0.011527932,-0.123633556,0.100795,0.013506506,-0.11280972,-0.00370319,0.18746233,-0.05269793,-0.18275449,0.08672397,0.011121496,-0.004571498,0.0013726703,-0.19033693,0.10937706,-0.03557222,0.051916767,-0.09578262,-0.07664619,-0.0076448666,0.06760456,0.0636614,-0.009417369,-0.0766382,0.00018027653,0.047778104,-0.024591811,0.08520582,-0.13772051,0.2516532,0.037508313,-0.09155849,0.009105193,0.09272389,-0.12658145,0.07051272,-0.124096364,0.028087186,0.08511304,0.033941317,-0.13036045,-0.059340287,0.082737,0.01237248,0.110058926,0.012998345
ago,0.0017705597,-0.026175212,-0.0136630265,-0.0020042902,-0.012351247,-0.02643906,-0.07141179,0.025364745,-0.01919502,-0.04991091,0.10452949,-0.04052908,-0.09112802,0.009339099,-0.059214007,-0.061523564,0.074113116,0.012415904,-0.04474461,-0.0016894107,0.014684692,-0.07514389,0.020221746,0.007034392,-0.0038028196,0.045599446,-0.042219307,-0.01679424,0.009855622,0.0220175,0.03289581,-0.005203537,0.020962376,-0.028168488,-0.007982235,-0.02352893,-0.048318043,-0.0068372474,-0.027322542,-0.0025444648,-0.011507084,0.08321511,0.028445013,0.05210745,-0.041905817,-0.016578056,0.092691034,-0.048832696,0.07176014,0.011524531,-0.0016485765,-0.056240406,-0.02932055,0.03460668,-0.04719458,0.009311501,0.08750202,-0.07903565,-0.0030952184,0.027910758,-0.008909068,-0.023739368,-0.092906356,-0.0026074622,0.023675755,-0.0015476897,-0.009375556,0.013310628,0.0419995,0.077460065,0.0062551307,-0.027739171,-0.037008524,-0.07382847,-0.032606192,0.034620456,0.012897237,-0.061760433,-0.012069739,0.0010705503,0.027562844,-0.003102478,0.028150031,-0.019280061,0.05949378,0.02091946,0.06532195,-0.06517428,-0.031355157,0.05496987,-0.0017022819,0.03698652,-0.04285357,0.013631435,0.095510215,0.10071509,-0.111292906,0.040565453,-0.09686479,0.09013669,-0.0075945086,0.0050814976,0.041874375,0.017932143,-0.007338487,-0.038826298,0.02207829,0.037843775,-0.019800108,-0.07607873,0.04043597,0.05473693,0.023317479,0.03407335,-0.019033292,-0.00010301181,0.00839768,0.13292773,0.040661316,-0.04295426,0.045092445,0.06243812,-0.08447514,-0.021231567,-0.083287664,-0.00043176106,0.071432576,0.058031015,0.056389816,0.048884585,0.014878233,-0.05078849,-0.028928591,0.029979123,-0.0080474485,-0.0015082834,-0.0030495138,-0.01872615,0.017962465,0.067413114,0.0030538219,-0.012725734,-0.11022052,-0.03890961,0.030225419,0.017932197,-0.03484301,-0.018559458,0.05723215,-0.051993072,0.05052615,0.029431593,0.0043416778,0.024645943,-0.11243507,-0.051458117,0.0025219843,-0.027220983,-0.08157817,-0.017116982,0.016329782,0.012541173,-0.024862424,-0.058956128,-0.03401123,0.027953291,0.019203458,-0.08681267,-0.02573687,0.047814924,-0.014645108,0.0363215,0.022629581,0.029941535,-0.035135575,-0.053690523,0.0002801334,0.061579525,0.010120923,0.0178837,0.04223954,-0.023072088,-0.0519132,0.026983485,0.03093119,-0.014768489,0.016963193,-0.07270422,0.014543304,0.022231238,0.0038973272,0.01310528,0.061858438,-0.015601018,-0.015548482,0.0012424034,-0.09256868,-0.039864477,0.025101373,0.05563653,0.007077188,-0.055925358,0.06472299,-0.001471828,-0.056519963,0.008788187,0.106600486,-0.033015158,-0.09271651,0.046395645,-0.0039695385,-0.0006598127,0.004753853,-0.0960254,0.055163108,-0.008418162,0.02222185,-0.044793587,-0.02928539,-0.012415284,0.03846103,0.0246671,-0.010782623,-0.035214454,-0.0036122352,0.019626072,-0.0052242633,0.037819106,-0.06304753,0.14539026,0.006146896,-0.045640387,0.0010178541,0.04564331,-0.05482738,0.04421016,-0.07222717,0.017664392,0.043718062,0.011856657,-0.060559455,-0.03571773,0.035252992,-0.0019462871,0.056602877,0.014879054
ah,-0.00394676,-0.089933306,-0.03215195,0.0013293598,-7.4892116e-05,-0.11176115,-0.16753462,0.078028135,-0.054593068,-0.13834274,0.2945405,-0.12747061,-0.23020995,-0.015017842,-0.1584786,-0.14477888,0.216433,0.035010677,-0.121835314,-0.031320784,0.04328253,-0.22509423,0.06384256,0.030819146,-0.04612802,0.12767658,-0.108838394,-0.06582064,0.023371035,0.046761584,0.10741914,-0.02873276,0.058354262,-0.1055916,-0.008660177,-0.099843614,-0.13030468,-0.010812208,-0.09215306,-0.0349967,-0.025638511,0.19051428,0.07724294,0.1261585,-0.094103195,-0.054504156,0.24406707,-0.16728967,0.19352296,0.048802365,-0.011512149,-0.14084303,-0.061967622,0.08060372,-0.13954157,0.017102083,0.23254699,-0.21999784,-0.021413542,0.11895744,-0.017755996,-0.06026022,-0.26701006,-0.054762665,0.076114446,-0.017225588,-0.01606907,0.03171328,0.102149375,0.23076685,0.014622056,-0.078404136,-0.10992623,-0.21662937,-0.102354504,0.062064633,0.047712095,-0.14636225,-0.036404654,-0.0119698765,0.07872137,0.000100484736,0.078268975,-0.07154102,0.18443543,0.03406112,0.12281672,-0.19935785,-0.09694726,0.14840674,0.0009821816,0.11147061,-0.11137815,0.013213509,0.29253405,0.25514978,-0.30958566,0.1352728,-0.25318426,0.23286042,-0.011791488,-0.002901141,0.14421742,0.0802146,-0.04626632,-0.10172871,0.08253534,0.09096988,-0.08331344,-0.22783065,0.08581739,0.12363085,0.04274776,0.08289035,-0.04513251,0.008273158,0.030070921,0.38655302,0.11897578,-0.074649,0.12242745,0.185779,-0.2145128,-0.059178486,-0.22477363,0.0009109841,0.198897,0.15486449,0.18693554,0.13769366,0.0036099264,-0.14513361,-0.06261,0.06244986,-0.0070426706,-0.012179864,0.012664815,-0.006428848,0.047626726,0.16244335,0.012569497,-0.009469171,-0.27802324,-0.12144297,0.070846274,0.05167077,-0.09943982,-0.043947536,0.1430077,-0.1342276,0.15801112,0.080489166,0.0238137,0.05678928,-0.30076462,-0.14208782,-0.015925668,-0.07420443,-0.24473652,-0.03428239,0.06948333,0.050581913,-0.07196553,-0.17987715,-0.09749605,0.05126967,0.06334782,-0.21446744,-0.059006367,0.1489111,-0.027192578,0.087218694,0.045233864,0.08940674,-0.08947002,-0.14921986,0.008707383,0.1680821,0.047818214,0.042453848,0.117220186,-0.09293224,-0.14258763,0.11111647,0.093924336,-0.03339735,0.07953056,-0.22770847,0.07830073,0.061326183,0.015001657,0.048065167,0.15677209,0.00089811906,-0.015224979,-0.0049443156,-0.23855007,-0.12202233,0.06477337,0.15742609,0.032736946,-0.15788814,0.15047534,0.010434878,-0.15695484,0.024550809,0.27892897,-0.08052017,-0.25681105,0.11294891,0.0075006555,-0.007769854,0.009681075,-0.27314267,0.15750495,-0.03328749,0.07879808,-0.1532525,-0.09602292,-0.034749683,0.09266129,0.10544762,-0.009392058,-0.101103336,-0.008464664,0.059129484,-0.048519272,0.12552582,-0.19283088,0.37928703,0.05247216,-0.09940961,0.028763495,0.12132033,-0.18225378,0.094156094,-0.18761766,0.058680683,0.13176821,0.040051218,-0.18701085,-0.096817344,0.10702451,-0.0042150924,0.14754318,0.025374694
ahah,-0.02143597,-0.017941928,-0.035269745,0.0051798094,-0.01803827,-0.084758356,-0.1504231,0.00078889186,-0.0028853156,-0.10994645,0.17725553,-0.06790397,-0.16045952,-0.004077614,-0.10801141,-0.107016414,0.1456786,0.020134334,-0.093613505,-0.029830858,0.05029012,-0.16612825,0.058109835,0.055866994,-0.04351946,0.09159483,-0.06807379,-0.06971188,0.014170106,0.019675847,0.072990455,-0.0027805897,0.0007122153,-0.05204143,-0.0068235327,-0.01406333,-0.08960328,-0.019704068,-0.015306765,0.000584358,-0.06266717,0.17008075,0.068432294,0.114443555,-0.088405706,-0.0049704732,0.21319334,-0.12506533,0.14804891,0.045858845,0.053132758,-0.1284639,-0.07558167,0.08823792,-0.063236244,0.0072887875,0.19764356,-0.17693958,-0.005884658,0.0905765,-0.028330402,-0.056488167,-0.15435985,-0.0007889267,0.043816227,0.0023654748,0.03417782,0.06325186,0.08307103,0.15776683,-0.013723192,-0.035017155,-0.0838481,-0.1884023,-0.10442398,0.06418742,0.05952639,-0.0816686,-0.05622856,-0.032686975,0.10143537,0.022671215,0.051360883,-0.068720505,0.150356,0.0084254965,0.11528564,-0.13803637,-0.037120953,0.12955244,-0.032873612,0.09407223,-0.099877395,0.016571173,0.19058973,0.1921885,-0.21264002,0.1195681,-0.24424344,0.17515324,-0.0082125,0.06192537,0.06684833,0.02966188,0.018513583,-0.05892213,0.05425627,0.08765448,-0.099121615,-0.121606275,0.10176635,0.08880972,0.023682341,0.048442435,-0.07229323,0.03181861,0.025623236,0.30870444,0.074369825,-0.044924982,0.050112464,0.15468557,-0.18579222,-0.06255289,-0.13081822,-0.009187735,0.13418527,0.12398964,0.17778817,0.09052397,0.024903266,-0.122900486,-0.10330665,0.041663524,-0.003256198,-0.025349637,-0.01792736,-0.004396971,0.021000264,0.11858199,0.026576042,-0.020698713,-0.18806247,-0.100069135,0.058538552,0.03173902,-0.08740015,0.016113559,0.14314888,-0.07066519,0.15872376,0.08597051,-0.02026757,0.042569336,-0.24049295,-0.103577696,-0.018138176,-0.060852505,-0.16511646,0.035727862,0.0778409,0.038554177,-0.08419141,-0.13020663,-0.061525464,0.07567332,0.09070595,-0.13749368,-0.064905,0.085366115,-0.046102766,0.008747503,0.04123097,0.0027900005,-0.034235332,-0.12137465,0.021282457,0.14294584,0.012362227,0.060081195,0.05818011,-0.081965685,-0.11820196,0.056838725,0.0441074,-0.047915068,0.021630615,-0.14147247,0.0046683946,0.06847265,0.00978471,0.03978075,0.1048738,0.006411544,-0.026308553,0.023926357,-0.16466403,-0.0884668,0.036403622,0.13750264,0.043171354,-0.08862393,0.1503655,-0.019835172,-0.08573602,0.0379538,0.23730768,-0.08855073,-0.17366618,0.057745777,-0.0056156535,-0.026095064,0.008682044,-0.2193206,0.14156464,0.022238247,0.044111006,-0.07168332,-0.057076905,-0.04454802,0.041667223,0.0909805,-0.010705519,-0.027940877,0.011453706,0.061903458,-0.025970684,0.086735435,-0.16716878,0.3049737,-0.0013994852,-0.013347628,0.0094516305,0.028095696,-0.11492658,0.05321687,-0.096742116,0.011936867,0.1160459,0.0086668795,-0.12723511,-0.04784485,0.045014597,-0.002973592,0.13050264,0.03017422
ahahah,-0.002949439,-0.035298977,-0.019512648,0.0040013934,0.0025117588,-0.043901354,-0.078368746,0.033674605,-0.029954378,-0.058488846,0.12624128,-0.05798228,-0.10253621,-0.007163084,-0.063093126,-0.067951314,0.09728891,0.015085067,-0.05017648,-0.013480609,0.022599041,-0.09676412,0.025940953,0.010440977,-0.017739331,0.05774142,-0.050786838,-0.026105776,0.010190214,0.023415169,0.051182367,-0.0055581992,0.029295968,-0.048245933,-0.009175865,-0.03825058,-0.05743062,-0.0076243198,-0.034691196,-0.0103183165,-0.013752623,0.08898984,0.03351787,0.054605354,-0.045129117,-0.022001773,0.10530139,-0.06813926,0.085895315,0.021332348,-0.006007109,-0.059387065,-0.032690547,0.04209095,-0.059926495,0.004521784,0.10720053,-0.09757446,-0.010945429,0.052397512,-0.006447346,-0.031020276,-0.118699186,-0.0149723,0.033048287,-0.008815067,-0.0051551284,0.01680903,0.051403217,0.10139791,0.0047435747,-0.031096965,-0.046326075,-0.0975441,-0.047486503,0.031444393,0.020235727,-0.061777093,-0.013370094,-0.00708707,0.03445423,0.0043304916,0.03367934,-0.035603248,0.079641365,0.02035451,0.05800384,-0.08561934,-0.044098947,0.065605864,-0.0016453732,0.04717079,-0.055055212,0.0039687613,0.12898614,0.121324964,-0.13891299,0.062484033,-0.11765218,0.106966905,-0.0025470722,0.009157271,0.06284581,0.02704667,-0.015753448,-0.046151575,0.031219468,0.047846016,-0.03738071,-0.09532658,0.03509667,0.05533094,0.024581874,0.042160172,-0.017848738,0.005222696,0.014671811,0.17075685,0.053743597,-0.036083408,0.052101646,0.08218171,-0.10001911,-0.024562635,-0.09620682,0.0018768435,0.086579725,0.068700746,0.08242037,0.0606213,0.00858688,-0.06626403,-0.028511602,0.02768614,-0.0048511866,-0.003281461,0.00271662,-0.0029378687,0.022220237,0.07135622,0.00068468327,-0.00414291,-0.13062711,-0.056424834,0.03833621,0.02347068,-0.04409529,-0.023826543,0.061937477,-0.060601674,0.07261034,0.03901101,0.0060192742,0.023624443,-0.13284089,-0.06604614,-0.0041886223,-0.028203676,-0.10988158,-0.011492562,0.027774502,0.017417056,-0.035010938,-0.07814788,-0.045650367,0.027524099,0.025317926,-0.09624934,-0.029717516,0.06326158,-0.016683774,0.039664425,0.022507202,0.039353494,-0.045914527,-0.07043547,0.005227848,0.07116197,0.0185591,0.018361477,0.051019326,-0.03749244,-0.061613496,0.04751516,0.038936667,-0.010823692,0.02996483,-0.09674003,0.028230062,0.025105493,0.0018204735,0.01410979,0.06712942,0.0033469936,-0.013425395,-0.0025855843,-0.10342378,-0.05528664,0.031985324,0.068887636,0.011830257,-0.066717535,0.071242586,0.0076432554,-0.068367966,0.009316011,0.12642153,-0.041053843,-0.10857354,0.057291996,0.0057573044,-0.0057524806,0.0010449792,-0.1278431,0.07188087,-0.016181283,0.030244855,-0.06813278,-0.044854596,-0.010842156,0.041324753,0.04474557,-0.0037447563,-0.043743122,-0.0035385273,0.030888692,-0.02260762,0.055622667,-0.088683866,0.17060983,0.019936798,-0.045048103,0.0022545434,0.05170445,-0.07534958,0.045446306,-0.084568776,0.019775845,0.056799896,0.015335269,-0.087213464,-0.039001156,0.047870796,-0.0023644045,0.06315723,0.008299569
ahead,0.004282474,-0.022546398,-0.01192145,-0.0018857393,0.0026070576,-0.025955902,-0.043862753,0.020116614,-0.01595385,-0.033307645,0.063873485,-0.024007678,-0.056319457,-0.0050663454,-0.03317487,-0.041835766,0.047342613,0.01330916,-0.033573385,-0.01043449,0.013964348,-0.052648056,0.01457348,0.004554288,-0.010257009,0.025655182,-0.02432575,-0.018761486,0.0008713063,0.0069848783,0.022356806,-0.0044477787,0.018293062,-0.027522247,-0.0025469542,-0.02497732,-0.031833928,-5.4449898e-05,-0.023407465,-0.0036756787,-0.0059808493,0.050397012,0.018541424,0.031009387,-0.024831716,-0.011190673,0.060238417,-0.03858072,0.046381596,0.011765984,-0.0005199766,-0.033977415,-0.018138254,0.01713092,-0.028906045,-0.0015396387,0.05557778,-0.054185554,-0.006735943,0.029415984,-0.003756223,-0.015324131,-0.060907084,-0.0072605363,0.018754076,-0.007102152,-0.0042912303,0.007841508,0.030308196,0.05447209,0.00028943134,-0.020895649,-0.027146343,-0.049625915,-0.02002366,0.014994752,0.010725377,-0.031297352,-0.008867256,-0.003748484,0.01827036,-0.0008425542,0.019622443,-0.020871839,0.04592169,0.011183329,0.02953974,-0.04820684,-0.026974922,0.034758672,-0.0018814402,0.023894336,-0.02596896,0.006177075,0.07190749,0.06378939,-0.07567991,0.031086,-0.058132812,0.059505176,0.0006808724,0.002201522,0.034908596,0.01742867,-0.012694458,-0.028251754,0.016401112,0.02398384,-0.017758008,-0.05239254,0.02197104,0.033039365,0.013530216,0.021934057,-0.009963962,0.004168607,0.005908591,0.093406335,0.024953129,-0.020705596,0.025404263,0.042074773,-0.05156607,-0.015415934,-0.051642645,-0.0033400473,0.04425981,0.036883038,0.04414929,0.03920089,0.0007187262,-0.036001623,-0.023090865,0.015034185,-0.002412271,-0.0040092934,0.0025750636,-0.008439254,0.015422153,0.038471166,-0.00051634794,-0.009048858,-0.07076005,-0.02766686,0.015444477,0.007969156,-0.016759751,-0.010120516,0.03669015,-0.035539385,0.034735277,0.01668136,0.002090998,0.012753738,-0.073680475,-0.034642052,-0.00062704546,-0.013334279,-0.058321152,-0.0037017032,0.011106236,0.01108209,-0.016423494,-0.03910102,-0.026067358,0.015172589,0.011300619,-0.05137484,-0.017212287,0.038920503,-0.01028277,0.019415759,0.014225532,0.01999449,-0.01912887,-0.040162127,0.0012202396,0.042347092,0.011806769,0.014704547,0.027284727,-0.021703385,-0.031399246,0.026522143,0.019235548,-0.008384541,0.015400783,-0.055209383,0.016503155,0.016003495,0.0026628817,0.0046769427,0.036902867,0.0019733517,-0.008101428,-0.0029698827,-0.059072006,-0.02371245,0.018548155,0.037217043,0.011065675,-0.0353093,0.042037368,0.0031112176,-0.037058577,0.005457033,0.06898317,-0.021014102,-0.061261542,0.032580413,0.0074398234,-0.0028411474,0.00014876491,-0.06463186,0.04167442,-0.0034038215,0.013684415,-0.030178998,-0.026505807,-0.011788992,0.021806343,0.027332531,-0.0011312111,-0.017663434,-0.002392196,0.015463605,-0.011156674,0.027484892,-0.044373523,0.095115,0.011924034,-0.026159441,0.006939652,0.030268159,-0.036418818,0.026735,-0.04666751,0.013646362,0.03537483,0.013097418,-0.045613375,-0.021586448,0.024118721,-0.004696877,0.038322896,0.0065248613
ahh,0.0017685248,-0.065599516,-0.028785443,0.009547235,0.0010636087,-0.06700323,-0.12451722,0.047327995,-0.03737446,-0.09702339,0.20042446,-0.08460627,-0.1651163,-0.008613519,-0.10104146,-0.095516615,0.15374623,0.023246024,-0.08027173,-0.025834173,0.037341923,-0.15206264,0.045346297,0.024066076,-0.035154473,0.0762896,-0.06928242,-0.048996598,0.010077613,0.03181165,0.075833686,-0.011031106,0.041101553,-0.08069838,0.0010912576,-0.06787545,-0.07895872,-0.0068458184,-0.066298835,-0.013666347,-0.012999743,0.14020091,0.05521446,0.09453967,-0.07356026,-0.03091555,0.17040166,-0.10013019,0.14161389,0.034617286,-0.0066832127,-0.10436989,-0.053207275,0.07040396,-0.0859355,0.015643002,0.1797324,-0.1421107,-0.025591822,0.07809778,-0.0170353,-0.0412742,-0.1806338,-0.019388612,0.045879085,-0.013365386,-0.007983705,0.030874362,0.075310454,0.1609305,-0.0024105983,-0.059310514,-0.073045865,-0.15038523,-0.06661608,0.04285787,0.049599662,-0.10828647,-0.022799246,-0.013829399,0.061321165,-0.0008832382,0.05385903,-0.051521268,0.12489425,0.023349622,0.092506416,-0.1446468,-0.06331548,0.11457042,-0.0037059856,0.07246614,-0.08710743,0.011183166,0.19413865,0.19377352,-0.20250145,0.09172163,-0.18124832,0.1582096,0.0039241877,0.019348498,0.08917552,0.041528028,-0.022003127,-0.07953779,0.058903098,0.062048115,-0.05545966,-0.14973387,0.05318814,0.08183279,0.032988664,0.06606928,-0.02264067,0.0007134054,0.024488099,0.2750899,0.07965321,-0.05532798,0.0819802,0.13519265,-0.15338084,-0.04583754,-0.15234774,-0.0013433436,0.1434797,0.11775901,0.1285192,0.08977301,0.003838776,-0.10448154,-0.04560849,0.04090761,0.00030492735,-0.015026988,0.00493908,-0.013181427,0.029336609,0.10898656,0.0013563016,-0.0077450573,-0.19573614,-0.075378776,0.063947536,0.031655475,-0.0803585,-0.020675432,0.10173759,-0.08943774,0.11398628,0.06561873,0.009668288,0.038732827,-0.21401036,-0.09263098,-0.0032997713,-0.062081173,-0.16751927,-0.017464615,0.059096534,0.028468378,-0.053489722,-0.12078917,-0.060906842,0.037259087,0.048415713,-0.14734311,-0.037293214,0.10298175,-0.030905947,0.065683775,0.023008158,0.057813562,-0.050014585,-0.107747786,0.0022489224,0.12316614,0.03557039,0.0337066,0.07822276,-0.058478378,-0.10093719,0.0710072,0.06365634,-0.024302393,0.036731582,-0.15108725,0.0530396,0.04860607,0.0029277697,0.032923955,0.106987834,0.009047016,-0.025759082,0.010504354,-0.1682354,-0.09109498,0.036721863,0.106859945,0.027610134,-0.11864415,0.11443005,0.015827602,-0.10823235,0.010247013,0.187854,-0.06632447,-0.18284112,0.074236624,0.0029811885,-0.019098371,0.00556968,-0.19546153,0.117964156,-0.017915076,0.048834696,-0.08717951,-0.072108984,-0.01895315,0.051915757,0.06743412,-0.029341113,-0.05395017,-0.0038562207,0.050036978,-0.019988228,0.079247616,-0.13601711,0.25331494,0.028474286,-0.059603553,0.0052044513,0.07222247,-0.12036011,0.06444492,-0.12479378,0.025693754,0.08778555,0.019161483,-0.12884273,-0.059471235,0.07616301,0.0029009234,0.10761552,0.010130322
aint,-0.018054752,-0.061107837,-0.05809688,0.0057744225,-0.027217085,-0.08334887,-0.20862332,0.037171397,-0.032217003,-0.14348349,0.2738689,-0.1160316,-0.26030314,0.004651181,-0.13819477,-0.19459416,0.21880901,0.053476296,-0.14421746,-0.02684425,0.05422052,-0.24011831,0.06820728,0.08038163,-0.031305082,0.14702457,-0.10788148,-0.06790144,0.0032564509,0.04420386,0.10829323,-0.01728657,0.0064982176,-0.08731496,-0.02682548,-0.041219875,-0.14635678,-0.042089026,-0.04881145,0.02784009,-0.045981232,0.23679411,0.08565637,0.12956552,-0.120122835,-0.013978671,0.2706251,-0.17000039,0.21089572,0.033681963,0.032064784,-0.17810538,-0.08863158,0.11784634,-0.10712281,0.011632186,0.28075722,-0.23385672,-0.017299708,0.12802865,-0.015716573,-0.07189485,-0.24827768,0.0054022935,0.067947276,-0.016011657,0.009353374,0.04974293,0.12566285,0.2109387,-0.009006688,-0.07230087,-0.13361979,-0.26246342,-0.11704839,0.09877695,0.09341928,-0.14529632,-0.058996566,-0.030607248,0.10009075,0.009351892,0.044601284,-0.09457599,0.21981302,0.035812087,0.15623762,-0.18832956,-0.05812672,0.16359471,-0.03422973,0.1360296,-0.14307049,0.026220528,0.2825779,0.29299867,-0.32621387,0.1443134,-0.30078092,0.23270848,0.01499565,0.059417725,0.106931634,0.046322882,-0.021104004,-0.075545855,0.05467875,0.11799516,-0.12955357,-0.20795812,0.1375067,0.12562735,0.044406436,0.06790635,-0.046820763,0.03708692,0.034671757,0.43404353,0.09813617,-0.1026267,0.10759079,0.19136171,-0.25295353,-0.08716716,-0.1977513,-0.005869462,0.19174856,0.17921604,0.20269929,0.15203305,0.02575489,-0.1550085,-0.13283731,0.06014775,-0.033752237,-0.021806657,-0.00040419062,-0.018055292,0.05691704,0.1847282,0.017686555,-0.04042861,-0.30051294,-0.11638698,0.09180741,0.027182156,-0.1152196,0.002705902,0.18687744,-0.12565935,0.18612108,0.12962729,-0.023097549,0.056372277,-0.32995352,-0.1337999,-0.024003379,-0.085858084,-0.22722621,0.002003525,0.08451047,0.03305735,-0.10559204,-0.17935778,-0.09416616,0.08955907,0.08831863,-0.22890788,-0.10582122,0.13951518,-0.059558462,0.042324618,0.049225885,0.059108008,-0.066815205,-0.17766665,0.014340118,0.20322014,0.02912044,0.08488055,0.1336048,-0.1252416,-0.16357885,0.078985274,0.08335361,-0.05979005,0.051916488,-0.22244504,0.036268927,0.0935325,0.020076517,0.055556517,0.18261366,-0.0004113293,-0.040370326,0.024426792,-0.24105543,-0.10869324,0.060631808,0.18933912,0.035878375,-0.14725688,0.18102069,-0.023859166,-0.1375639,0.03853244,0.33857498,-0.12991132,-0.25116134,0.092030466,-0.0042387354,-0.033312712,0.019211832,-0.299173,0.19000298,0.010004675,0.069724046,-0.10593181,-0.08601971,-0.051600464,0.07310587,0.10909077,-0.017293612,-0.061737705,-0.011206085,0.07039894,-0.032828297,0.11176162,-0.21257825,0.41735366,0.00851746,-0.08144862,0.012529781,0.07397533,-0.14640677,0.116376385,-0.17456855,0.022626612,0.15695238,0.039199915,-0.15906289,-0.083231136,0.0896893,-0.019468257,0.15442501,0.05144575
air,0.0059333513,-0.05752374,-0.025196053,-0.0019893008,0.004597691,-0.04591239,-0.11222319,0.056775022,-0.061683994,-0.07344185,0.18062575,-0.06572502,-0.14050665,0.0005641721,-0.08565887,-0.0875315,0.12765665,0.014655599,-0.07091139,-0.0057622558,0.03884434,-0.14405452,0.028525017,0.014608082,-0.0069335005,0.07379433,-0.08129208,-0.032082852,0.01790629,0.030532897,0.059084103,-0.008699785,0.041934934,-0.05889548,-0.006245,-0.07078335,-0.079444505,-0.0067653186,-0.06589977,-0.015292616,0.006653613,0.12717582,0.049796455,0.06931823,-0.053907555,-0.025117302,0.13232158,-0.091132365,0.10963268,0.032077074,-0.016510287,-0.08283931,-0.0392759,0.051879086,-0.09360341,0.0029622375,0.14938945,-0.10843954,-0.0159186,0.05559808,-0.0073334347,-0.025408868,-0.15865324,-0.011083659,0.05813984,-0.004167613,-0.023892067,0.0018826815,0.067218035,0.14431734,0.01362254,-0.05046564,-0.07394105,-0.11423658,-0.02999543,0.037942052,0.004871795,-0.11719464,-0.02269122,-0.00648175,0.031233499,-0.011241618,0.03992007,-0.037656434,0.10462939,0.021888927,0.08556684,-0.12162219,-0.05384198,0.06600266,0.0018172443,0.058961608,-0.0936785,0.017768595,0.1613624,0.15457204,-0.1805292,0.056082588,-0.14520738,0.13263611,-0.00088978047,0.0061812378,0.08250631,0.03405108,-0.023220124,-0.06647554,0.039287455,0.044834826,-0.03557597,-0.1423009,0.038967896,0.06944779,0.034021202,0.06036307,-0.006855331,-0.007777894,0.0099125635,0.21831152,0.07142599,-0.062096443,0.078287825,0.11243082,-0.1315095,-0.019921344,-0.13675186,0.008273235,0.13108318,0.094889715,0.08446501,0.0968575,0.011092574,-0.084798515,-0.020453928,0.040870685,-0.0094039515,-0.005938506,0.008445412,-0.017440189,0.035623703,0.103766724,0.0017678827,-0.0046079475,-0.18071151,-0.06137685,0.0607305,0.023068078,-0.057408385,-0.043952823,0.08116374,-0.08028437,0.079097606,0.041397408,0.0154941855,0.026979407,-0.15390383,-0.08458762,0.003622885,-0.03590986,-0.14395209,-0.037445214,0.023221068,0.024058428,-0.034148067,-0.10712804,-0.054765645,0.018122822,0.02336411,-0.12917505,-0.038651627,0.07671308,-0.0095083825,0.086367674,0.030231316,0.06471214,-0.06838058,-0.09373201,-0.003546248,0.08857801,0.022916745,0.021810014,0.070592724,-0.030080661,-0.074355036,0.062424984,0.06671055,-0.004623429,0.044458207,-0.12336395,0.06038443,0.030065173,-0.0018135125,0.0070255552,0.09434259,-0.008533039,-0.013588062,-0.008510865,-0.1520401,-0.06702874,0.040041998,0.0875527,-0.0016660169,-0.09082553,0.10193117,0.009549814,-0.11117368,-0.010218008,0.15321727,-0.04863785,-0.15882078,0.08633864,0.010689858,0.00727682,-0.0056380327,-0.16089565,0.08987204,-0.025943216,0.03879772,-0.093372256,-0.05236941,0.0021843694,0.055143487,0.05175321,-0.011381244,-0.06299138,-0.0049359533,0.0497089,-0.031545725,0.068993784,-0.11889962,0.21588825,0.032521285,-0.086565055,0.004200757,0.08400917,-0.09330361,0.07993055,-0.1179866,0.023823105,0.07322107,0.027111232,-0.113157615,-0.05048767,0.06929767,0.0011560436,0.088248745,0.0022988815
alive,-0.004793712,-0.036653105,-0.017842826,-0.0038200256,-0.0059338133,-0.04762989,-0.06819083,0.014188736,-0.02054606,-0.06892213,0.15414943,-0.06557297,-0.13186373,0.0024005303,-0.099566035,-0.12317467,0.10962087,0.02817426,-0.08954452,-0.016717909,0.007780214,-0.123177506,0.054351296,0.043994073,-0.023876915,0.08696545,-0.06936063,-0.029901952,-0.0067305197,0.023336008,0.06075511,-0.01045058,0.014517263,-0.032213904,-0.0027138982,-0.028196728,-0.06598971,-0.0060522975,-0.038518567,0.0064073373,-0.014153141,0.08814635,0.0526786,0.071213715,-0.051865056,-0.009306012,0.1362468,-0.09796746,0.099797845,0.014214237,0.005756275,-0.093110286,-0.019269366,0.049235813,-0.053069282,0.0020940949,0.1346277,-0.14060129,0.0026180102,0.086443074,0.008431885,-0.043909278,-0.14870727,-0.029750003,0.016330255,-0.026391981,0.001709797,0.016921943,0.061900027,0.108533606,0.017966278,-0.026191685,-0.07433716,-0.12881325,-0.049943592,0.020420296,0.047034264,-0.077874415,-0.023320574,-0.016850887,0.0602008,-0.003231262,0.03373961,-0.020294553,0.11725724,0.02700789,0.050878424,-0.10576405,-0.048174974,0.09361913,-0.01121529,0.061519943,-0.052965317,-0.0030526526,0.15372802,0.1403515,-0.18035221,0.06744431,-0.13910575,0.110168226,0.01142328,-0.010224116,0.055502832,0.029957237,-0.029891402,-0.04573575,0.027320925,0.054176036,-0.07088839,-0.13911931,0.06312314,0.05603727,0.010364345,0.029393906,-0.019585038,0.02745306,0.018119479,0.22078559,0.0513388,-0.035652313,0.069678575,0.11011386,-0.10446985,-0.056856547,-0.12168631,0.023796558,0.10256436,0.06818863,0.11239272,0.09534773,-0.006025634,-0.095250554,-0.042207047,0.0452209,-0.019588333,-0.0017893849,0.014124819,0.0025739765,0.035196975,0.09045944,-0.0016007529,-0.00640203,-0.16192965,-0.065862544,0.03323894,0.013423843,-0.06455046,-0.016096557,0.100593664,-0.064418085,0.11890901,0.05127875,-0.012991059,0.021340037,-0.17213261,-0.09089258,-0.02292442,-0.04482089,-0.12683922,0.0006648818,0.048685208,0.028876416,-0.05551214,-0.105507255,-0.053810313,0.049459092,0.061448358,-0.13858096,-0.04626579,0.0953651,-0.011976382,0.0395396,0.031828783,0.053716373,-0.043384306,-0.10485357,0.03473225,0.11546126,0.03577058,0.036273662,0.08670034,-0.057856254,-0.09146588,0.06301703,0.07530458,-0.019762881,0.04985107,-0.15709858,0.045915257,0.04894746,0.01494404,0.05853578,0.108722135,0.008950276,0.016651263,0.0016701302,-0.11833059,-0.058431096,0.025432343,0.10733731,0.018743923,-0.081951424,0.08965758,0.001619997,-0.07746413,0.022215672,0.18371814,-0.062966414,-0.14139028,0.06274171,-0.009378255,-0.035585623,0.020311654,-0.17497526,0.095390044,-0.005051435,0.05711375,-0.08818096,-0.044901516,-0.027583387,0.060488418,0.06219391,-0.001009184,-0.051009,-0.0017865531,0.034301545,-0.02200861,0.07152122,-0.11284148,0.23057482,0.012790492,-0.046661798,0.029715689,0.049965713,-0.11642219,0.04271556,-0.09326986,0.028432995,0.07831968,0.04286473,-0.09304288,-0.07166478,0.056136835,-0.028121227,0.060435228,0.023573095
all,-0.021098593,-0.14256728,-0.021497594,-0.026198886,0.03361737,-0.19487894,-0.26021767,0.13452548,-0.11668451,-0.18919641,0.45416683,-0.2763651,-0.3223748,-0.0027554492,-0.27954507,-0.08162188,0.28106079,-0.03373933,-0.018990552,-0.042119328,0.023930147,-0.20239493,0.06756866,-0.019343017,-0.06845751,0.18736199,-0.0795538,-0.044818643,0.056953907,0.09736285,0.124277584,0.015946105,0.12399389,-0.1843137,0.026122805,-0.16249204,-0.108534396,-0.053895816,-0.13749687,-0.08824435,-0.0735874,0.25789413,0.08719799,0.17104684,-0.13953547,-0.085729145,0.3055239,-0.17987013,0.23337042,0.029759556,-0.0181868,-0.2718846,0.022010379,0.08449675,-0.19967028,0.060145255,0.21968256,-0.28921524,-0.0011109817,0.0738987,-0.05719241,-0.026769107,-0.36001635,-0.08429733,0.08698607,-0.034637067,-0.054117113,0.038118195,0.12717949,0.29631045,0.060854644,-0.11512938,-0.045390476,-0.20849338,-0.1409999,0.09026722,-0.019880855,-0.24808764,-0.08940602,0.048170503,0.009216858,0.044521775,0.10539117,-0.037951782,0.16457726,0.08653014,0.16039743,-0.16705911,-0.10730305,0.16433243,0.034372695,0.1251859,-0.10378323,0.022596274,0.3827316,0.30327898,-0.26475236,0.14050804,-0.27098328,0.2810878,-0.06003386,-0.04190789,0.1614817,0.16042499,-0.030398045,-0.14789772,0.18170737,0.034851536,-0.02513611,-0.24639976,0.038139522,0.16938479,0.046591967,0.17241836,-0.10902748,-0.029616773,0.044900455,0.37545043,0.16200311,-0.04212903,0.14366554,0.20992975,-0.25011078,-0.078683876,-0.26867026,-0.01036874,0.24287245,0.13229233,0.20076573,0.08282184,0.03109343,-0.16450067,-0.02938839,0.14257665,0.036365297,0.019436484,0.0020782924,-0.029134523,0.107068226,0.22717553,0.064545415,0.03360102,-0.3033709,-0.119463295,0.021138584,0.11821819,-0.13586886,-0.038477886,0.101890124,-0.2331065,0.10266141,0.06437597,0.11253723,0.06583075,-0.36281306,-0.16561449,0.00901143,-0.14048825,-0.28056788,-0.08735668,0.102896795,0.07689011,-0.07442868,-0.20575674,-0.16442315,0.025536325,0.037383284,-0.23613812,0.021382436,0.10263655,-0.04037995,0.10797749,0.08879567,0.123067856,-0.14511183,-0.18314895,-0.032500964,0.17036763,0.040492434,0.09495527,0.06897008,-0.07192787,-0.13456455,0.1925687,0.1364192,-0.026191035,0.118892826,-0.25319064,0.13919133,0.053052492,0.037308,-0.0011500455,0.16390702,-0.028558847,-0.0407624,-0.04574107,-0.27046737,-0.15263088,0.08496932,0.1513674,0.049751062,-0.23780124,0.15388528,-0.031738456,-0.23162583,-0.00917267,0.2764938,-0.043204956,-0.34035626,0.16675834,-0.00886147,0.037407994,-0.06335924,-0.29787323,0.15055667,-0.049525563,0.052697614,-0.25750887,-0.104731284,-0.032953862,0.14816824,0.07581264,-0.0110777235,-0.12080185,0.0069536674,0.073249586,-0.036132578,0.072417624,-0.20814201,0.42916948,0.06882364,-0.10775915,0.040759403,0.17413077,-0.25731716,0.14485838,-0.24327038,0.15208425,0.15527795,-0.0048025544,-0.22932374,-0.12674598,0.14444526,0.036435056,0.20920102,0.08865189
almost,0.0020527863,-0.05445694,-0.023749577,-0.006419531,-0.0029200923,-0.06683939,-0.12902847,0.04847671,-0.04544393,-0.09094912,0.18931982,-0.08132693,-0.1585091,-0.00019016021,-0.094729975,-0.10995337,0.14643294,0.023189567,-0.0883575,-0.023815047,0.036600213,-0.16092156,0.039364003,0.02913919,-0.031555317,0.085727274,-0.07814677,-0.044080507,0.012279667,0.0303209,0.06671348,-0.0075330012,0.036189456,-0.06620436,-0.00994042,-0.058818232,-0.08993958,-0.014849455,-0.049673717,-0.010674755,-0.023272965,0.15011041,0.05686815,0.087965086,-0.07172682,-0.024390815,0.16828656,-0.10960272,0.1368686,0.034431003,0.0066594104,-0.10214199,-0.05448115,0.062008966,-0.09017498,0.0035828887,0.17867298,-0.14666755,-0.011733637,0.07380988,-0.016525913,-0.039211385,-0.1723745,-0.013517694,0.053825766,-0.00088980957,-0.005597013,0.022013785,0.08534771,0.15803024,0.0068856417,-0.05479501,-0.076687194,-0.15009926,-0.06529529,0.048726916,0.03581779,-0.111722365,-0.03210919,-0.012064231,0.05138733,0.00020502422,0.047149487,-0.0560712,0.12750748,0.026748931,0.09996515,-0.1402044,-0.05500692,0.099438556,-0.0021227053,0.07845977,-0.09719002,0.018682718,0.19192734,0.19216613,-0.21179916,0.087353036,-0.19166948,0.16567257,-0.00018410203,0.019308753,0.09167631,0.04553656,-0.020190602,-0.071999565,0.0475778,0.06533985,-0.062151622,-0.15186878,0.07158205,0.09286579,0.037737314,0.056429956,-0.03211509,0.0090070125,0.022030734,0.27095774,0.07734625,-0.06349906,0.07888685,0.12841386,-0.15752684,-0.040443297,-0.15407012,-0.00091662066,0.13896762,0.112456486,0.12075954,0.10013409,0.016544638,-0.103562765,-0.054045744,0.0426503,-0.014977122,-0.0098935105,0.0019334626,-0.013194256,0.039057016,0.12633762,0.0075676306,-0.011284969,-0.20229372,-0.079707675,0.06316872,0.028760778,-0.06977806,-0.028396767,0.10669884,-0.08661899,0.11227802,0.06094235,0.010545226,0.03323199,-0.20743372,-0.10197377,-0.0072625214,-0.044625845,-0.16128695,-0.018370476,0.044436052,0.03021179,-0.058188245,-0.12522645,-0.07204618,0.039994635,0.04370807,-0.14513738,-0.04989647,0.08694046,-0.018913923,0.056412857,0.036749866,0.053628482,-0.062166102,-0.11845126,0.00082473864,0.117685385,0.020789819,0.035827477,0.08213859,-0.06421098,-0.09750936,0.06553749,0.0649879,-0.024364514,0.039764747,-0.14452669,0.03541159,0.0491836,0.0019158998,0.02057382,0.116384245,-0.004699584,-0.020099657,0.008261887,-0.17201766,-0.08014432,0.040605154,0.10887662,0.023222368,-0.11202833,0.11868822,0.00263163,-0.10637394,0.009966132,0.19818014,-0.06833762,-0.17408136,0.08340893,0.00322451,-0.004814901,0.0040480183,-0.1992153,0.11983012,-0.011699852,0.048851464,-0.09311592,-0.06665945,-0.02527731,0.060483363,0.069775976,-0.01587867,-0.058985446,-0.00010699042,0.05712606,-0.029304955,0.08157447,-0.14047997,0.26935443,0.022433443,-0.06751468,0.0047093164,0.07894293,-0.11472081,0.07784537,-0.12547156,0.020582292,0.09110424,0.028972646,-0.119118415,-0.05638252,0.075274415,-0.0034787161,0.102722466,0.0270327
alone,-0.0006373751,-0.11571512,-0.03484921,0.009452409,-0.0045756646,-0.15655689,-0.19193487,0.09391796,-0.07188077,-0.17329556,0.36011946,-0.18067808,-0.26509407,-0.013007026,-0.20277981,-0.13539772,0.2549003,0.023426576,-0.09581316,-0.041289717,0.033893373,-0.22903603,0.087501936,0.01957806,-0.06934442,0.14048721,-0.105849676,-0.074394755,0.045229208,0.053539526,0.1301714,-0.022556368,0.086469516,-0.16073899,-0.0058056237,-0.13849388,-0.13367406,-0.013508904,-0.10377576,-0.057858564,-0.047508303,0.21129143,0.08399429,0.1586877,-0.12608297,-0.08235493,0.2976778,-0.17521407,0.24278606,0.065110534,-0.0057528974,-0.17465125,-0.055779517,0.09066469,-0.17150827,0.030439783,0.24312207,-0.2635943,-0.017702894,0.11973967,-0.050656226,-0.06622165,-0.31288454,-0.066113904,0.10219474,-0.016791023,-0.011304505,0.04637164,0.111391395,0.27065408,0.020540234,-0.08790178,-0.096109845,-0.25225183,-0.14064738,0.057027407,0.05096015,-0.16382535,-0.043271936,-0.007406955,0.07815949,0.015224648,0.10373901,-0.077768825,0.19215843,0.04236035,0.14401455,-0.2171258,-0.12514362,0.18271631,0.023887936,0.113012746,-0.10122752,0.015849436,0.3472445,0.2878056,-0.34563336,0.1579948,-0.27266952,0.2771143,-0.025619272,-0.013911214,0.16257171,0.10948834,-0.046783883,-0.12231957,0.12387732,0.10461581,-0.08229665,-0.24318239,0.09412122,0.16083792,0.0522401,0.1171033,-0.078858614,-0.010579482,0.048041094,0.44395864,0.1455791,-0.0702524,0.13362348,0.20647353,-0.23369487,-0.07322194,-0.25375766,-0.0070651905,0.21987812,0.16325003,0.2342695,0.118641496,0.010321517,-0.1719037,-0.07158458,0.07878846,0.0149030555,-0.022162722,-0.00075984694,-0.010705682,0.0521319,0.17601448,0.03560105,0.0055065234,-0.30644795,-0.14255385,0.057823632,0.09001625,-0.12461727,-0.03956976,0.1506432,-0.17488505,0.16693087,0.07036524,0.062356398,0.069562495,-0.35408428,-0.15317553,-0.006414442,-0.105166614,-0.2935235,-0.020591324,0.10164086,0.06257441,-0.085997604,-0.20712095,-0.10712273,0.053218234,0.08436214,-0.24507338,-0.037069507,0.16650797,-0.057207026,0.08965569,0.055946786,0.0785109,-0.11175156,-0.1518113,9.937323e-05,0.19729473,0.057398483,0.048559565,0.09567168,-0.099110365,-0.14915855,0.14282519,0.10506305,-0.03422787,0.09302262,-0.26451704,0.0994827,0.05575007,0.017640304,0.04005608,0.16512665,0.0038091666,-0.044703253,-0.023976922,-0.2778959,-0.1560434,0.0726247,0.16703574,0.063646376,-0.19047245,0.17210619,-0.00084416126,-0.18933688,0.04080082,0.3004861,-0.07631103,-0.31772637,0.12863019,0.0070530255,-0.001783049,-0.0002928042,-0.30385104,0.17400797,-0.034035414,0.08203768,-0.18580061,-0.11629444,-0.07047228,0.097517475,0.1195541,-0.017222064,-0.10823444,-0.008265136,0.06341082,-0.046767708,0.14944082,-0.22886248,0.4391785,0.064006545,-0.08841405,0.04150703,0.12568885,-0.21160735,0.0878973,-0.22340694,0.08365221,0.14816736,0.025780566,-0.21933292,-0.103901096,0.11667831,0.0002655904,0.1826317,0.026196258
along,0.004570087,-0.08865706,-0.033231054,-0.0036392878,-0.00069563003,-0.08080621,-0.14922173,0.07229972,-0.06468508,-0.11332084,0.26952675,-0.11760225,-0.21833596,-0.0060648634,-0.13645445,-0.13578525,0.2007229,0.026815636,-0.09880341,-0.02437845,0.041027427,-0.19858718,0.049714323,0.01710548,-0.02910163,0.117699735,-0.09241286,-0.048199914,0.02095492,0.05960227,0.08827367,-0.019424213,0.0627223,-0.095326394,-0.010096597,-0.0955453,-0.117592655,-0.005641827,-0.084119186,-0.030221513,-0.011112294,0.17723177,0.0701393,0.11441747,-0.096729435,-0.040317558,0.2069953,-0.13522474,0.17241016,0.033731334,-0.013025018,-0.12796898,-0.039659802,0.06823602,-0.13476147,0.0067913597,0.20603034,-0.1869733,-0.010217227,0.089401364,-0.012253917,-0.052754927,-0.24037229,-0.03651634,0.07519555,-0.009219213,-0.025369622,0.015786748,0.10373297,0.20591795,0.024279969,-0.07091581,-0.099375345,-0.17304467,-0.08227249,0.05527851,0.035359144,-0.14748137,-0.029771375,-0.0067755366,0.044494066,-0.0065342123,0.07602609,-0.04709089,0.15305868,0.044406384,0.11325624,-0.18033104,-0.09142309,0.123387344,0.009019712,0.10438755,-0.09988903,0.017036086,0.2631302,0.2305274,-0.2715059,0.100329064,-0.2252976,0.20806204,0.000681666,-0.004442014,0.12630318,0.06342396,-0.029511014,-0.10548368,0.05462927,0.07331244,-0.07142284,-0.20890081,0.060484197,0.12319458,0.05217867,0.0860376,-0.03264125,0.0019807876,0.017498154,0.33294743,0.10422528,-0.08474893,0.10981993,0.16356109,-0.19057405,-0.056563523,-0.21132365,-0.00043133477,0.18609627,0.12964553,0.14652668,0.11750755,0.010310151,-0.11688567,-0.045425903,0.08107465,-0.010640362,-0.008379583,0.011382765,-0.011923531,0.049678233,0.14587805,0.010076769,-0.013708508,-0.25573412,-0.101522096,0.069083,0.045167733,-0.075498976,-0.050140783,0.11478778,-0.13545874,0.123855956,0.060103837,0.030445572,0.051515996,-0.25182074,-0.12207476,-0.012893424,-0.06045601,-0.21514969,-0.04146095,0.052261326,0.04529522,-0.065883815,-0.16146226,-0.09544881,0.04837873,0.047452476,-0.19802204,-0.048763424,0.12973444,-0.0199576,0.09370995,0.04648841,0.09017165,-0.08814839,-0.14299569,0.002554851,0.15187381,0.04739093,0.036150485,0.11904094,-0.06538608,-0.11167481,0.0974414,0.09062688,-0.020422228,0.07207834,-0.19507134,0.07583401,0.04569037,0.008958223,0.02255535,0.13730778,0.002026178,-0.018888064,-0.0045417952,-0.21522321,-0.09851116,0.05395071,0.14133053,0.02354642,-0.14561477,0.1381725,0.0104203755,-0.14104933,-0.0014011402,0.24068467,-0.0675773,-0.22869237,0.11130174,0.0007571092,-0.0019383401,0.0011425818,-0.2276697,0.13540694,-0.033894293,0.07221725,-0.14159958,-0.08586671,-0.023286497,0.089579105,0.07770646,-0.026268778,-0.08395578,-0.016524281,0.054135848,-0.034880076,0.09448649,-0.16209467,0.33812633,0.039882094,-0.1106767,0.016013043,0.120733835,-0.15485995,0.09607909,-0.17213997,0.046066184,0.11047451,0.03907886,-0.16006741,-0.08381316,0.102200724,2.276464e-05,0.12632804,0.027965909
already,0.0009282043,-0.05482409,-0.019628283,-0.002441623,0.0023775797,-0.04606891,-0.10701234,0.037733205,-0.03560533,-0.07386834,0.16613927,-0.07531579,-0.14429326,-0.004602726,-0.087629735,-0.07958707,0.1264452,0.028094977,-0.07275371,-0.02738981,0.035182174,-0.12973414,0.022018617,0.025836023,-0.023779059,0.06944749,-0.0637561,-0.02475164,0.0117184855,0.046718094,0.05664114,-0.015095699,0.041928194,-0.056468915,-0.0131248245,-0.07112135,-0.06722338,-0.0109766135,-0.054347593,-0.016600877,-0.004993457,0.12199954,0.04317191,0.069813035,-0.057225827,-0.024265015,0.1250602,-0.085457586,0.10357812,0.01832534,-0.012936228,-0.08111029,-0.032248277,0.05447259,-0.082553476,0.007756718,0.14254166,-0.10875174,-0.017389288,0.05403419,-0.012797628,-0.034977756,-0.15362726,-0.027247254,0.04452393,-0.009434952,-0.022442885,0.008088403,0.06570211,0.13540281,0.006662082,-0.04626227,-0.06808413,-0.10670391,-0.044942062,0.04294114,0.024847724,-0.10286175,-0.024456691,-0.004648257,0.020166004,-0.0004659902,0.04330428,-0.035178006,0.10135562,0.02585241,0.0702615,-0.1199302,-0.04692653,0.07818377,0.0027039119,0.07433216,-0.07765,0.014688765,0.1655879,0.15426949,-0.16342533,0.06849063,-0.14701183,0.12544926,0.011442641,0.003243551,0.08465428,0.046198994,-0.02333515,-0.06640225,0.040964276,0.03177972,-0.05645522,-0.12768716,0.03631706,0.07044235,0.030210426,0.05473403,-0.024097439,-0.0044365404,0.008041161,0.20639178,0.06647663,-0.05498066,0.07024367,0.1061506,-0.12121627,-0.02721939,-0.1310945,0.0021591044,0.13262336,0.08486031,0.08972484,0.08546317,0.003684758,-0.07581296,-0.024039857,0.042827524,-0.012368421,0.0011167091,0.01173376,-0.0044920947,0.034827173,0.10186246,0.0062786723,-0.0071960343,-0.16578272,-0.05670468,0.05360409,0.017839402,-0.053934846,-0.028865946,0.07978508,-0.073420726,0.07714188,0.048121125,0.0182789,0.03314954,-0.16092022,-0.079601645,-0.0039839735,-0.043779958,-0.13625905,-0.028722143,0.041947536,0.020557,-0.042296384,-0.10472508,-0.05780446,0.025197305,0.03298609,-0.11931008,-0.03023113,0.075232856,-0.0057845158,0.061120316,0.025172768,0.058500092,-0.05924742,-0.09251248,-0.002682899,0.09417276,0.031795457,0.036910463,0.076626904,-0.048177354,-0.07620232,0.057921622,0.06629287,-0.010984446,0.044453822,-0.12436654,0.041426282,0.03588602,0.010763061,0.013003196,0.09507713,0.0038260391,-0.009672816,0.00213688,-0.1334027,-0.06580425,0.029428719,0.08258373,0.012404283,-0.10532933,0.092783816,0.009937002,-0.09400447,-0.008467792,0.15027118,-0.046569012,-0.15479542,0.07105621,-0.0023816505,-0.011774486,0.0056323237,-0.15218368,0.08880623,-0.016351258,0.055307962,-0.080639124,-0.05520743,0.0012370609,0.053371534,0.042977635,-0.014818603,-0.06020217,-0.0028698123,0.040756557,-0.018303385,0.06129657,-0.10432418,0.2103973,0.024036773,-0.071180135,0.003736079,0.07303446,-0.09862104,0.06849085,-0.09686436,0.027385345,0.07097785,0.020807784,-0.096804045,-0.046993293,0.06853409,0.0066565373,0.09119852,0.015642976
alright,-0.0010320324,-0.09189948,-0.042346537,-0.013554719,-0.041261002,-0.08084309,-0.22505683,0.068573035,-0.066879675,-0.14531969,0.3162743,-0.12840317,-0.28656906,0.012955608,-0.15648769,-0.19601399,0.2425638,0.04872033,-0.1452311,-0.018905971,0.04973517,-0.25806025,0.05026634,0.039314095,-0.010015878,0.14197275,-0.13069153,-0.05453204,0.035835743,0.07517721,0.092528045,-0.024760287,0.067244224,-0.092821285,-0.023212804,-0.09260989,-0.16662183,-0.016104493,-0.09544425,-0.004638945,-0.025830671,0.2559469,0.089154966,0.14153403,-0.13900523,-0.046348214,0.29786968,-0.16751704,0.22191507,0.029006518,0.002829498,-0.15586498,-0.09690582,0.11168014,-0.14683372,0.021195807,0.29947913,-0.23207343,-0.020750098,0.10211979,-0.0290858,-0.06705874,-0.2782216,8.344377e-05,0.09025782,0.010948047,-0.01593872,0.03104624,0.13710876,0.23622629,0.025939748,-0.08370005,-0.14964266,-0.24093369,-0.085403584,0.10197877,0.046153486,-0.18827705,-0.044874176,-0.014196759,0.0738819,-0.003554986,0.09298388,-0.079369865,0.2024012,0.047901362,0.18593848,-0.22087748,-0.101567976,0.15538134,-0.0047740247,0.12594141,-0.14621939,0.03221385,0.3087092,0.30659994,-0.3505526,0.12777449,-0.29749638,0.2858235,-0.017290657,0.030388974,0.13513002,0.055666648,-0.026353788,-0.10428345,0.059432525,0.10178062,-0.09096633,-0.23811562,0.12807184,0.1602434,0.07264247,0.1044543,-0.034516666,0.0038533064,0.029368058,0.43779078,0.12184414,-0.14088975,0.13329542,0.19795616,-0.2691333,-0.072012134,-0.24473818,0.0026491012,0.22934084,0.1944662,0.17171335,0.17351246,0.031312704,-0.16185102,-0.08400281,0.08626807,-0.031510003,-0.01110565,0.008316312,-0.044117536,0.06406904,0.21501315,0.00056540925,-0.02739573,-0.33147705,-0.12785387,0.11099114,0.04310058,-0.101353034,-0.058840595,0.18101741,-0.14280176,0.16124867,0.08486925,0.022326838,0.0644192,-0.35015428,-0.15765107,0.010768774,-0.06609932,-0.25229415,-0.049477752,0.046487972,0.05059465,-0.076525785,-0.18754025,-0.103657044,0.06158906,0.06522162,-0.25910315,-0.09460171,0.15376677,-0.04699193,0.11518473,0.058633275,0.10683647,-0.09914689,-0.1770954,-0.011266196,0.17883982,0.0314247,0.061263233,0.16005881,-0.07719732,-0.16686498,0.08663807,0.10070846,-0.036055543,0.050913345,-0.23348267,0.059214022,0.060699698,0.006651259,0.027618874,0.19105814,-0.05269851,-0.039914362,-0.0007942571,-0.29965675,-0.112801306,0.06259133,0.17767157,0.008616425,-0.17061318,0.20031106,-0.010579257,-0.1808152,0.028750872,0.33257592,-0.10163814,-0.28199318,0.13901046,-0.0023667926,0.0008088875,0.0048543066,-0.31061825,0.1664171,-0.029473713,0.08611498,-0.1291651,-0.09928195,-0.039413016,0.099946685,0.084660284,-0.02691231,-0.10381402,-0.007928789,0.08015399,-0.025129266,0.12342807,-0.20232192,0.45409393,0.030561708,-0.15019445,0.005279217,0.14375147,-0.16442733,0.15241575,-0.20585124,0.037850346,0.13340153,0.036263417,-0.19238098,-0.10211083,0.12783454,0.0073961704,0.17069274,0.03721582
always,0.000600955,-0.100239,-0.069353454,-0.0030900533,-0.010511106,-0.1278838,-0.26861882,0.1499307,-0.14659439,-0.16499913,0.39386827,-0.19223866,-0.34437546,0.006675132,-0.19332005,-0.18779272,0.3049379,0.04269084,-0.12959246,-0.021506486,0.061160848,-0.28561062,0.05458464,-0.004620339,-0.046823464,0.17277236,-0.15991746,-0.0618892,0.039835967,0.115161404,0.13324288,-0.026934609,0.10240048,-0.13089165,-0.013171998,-0.118556224,-0.18715413,-0.049417567,-0.14662881,-0.024301467,0.00092668703,0.30717495,0.11733381,0.13687828,-0.14510122,-0.082980946,0.30344653,-0.16390945,0.23188585,0.031677328,-0.034774784,-0.19524902,-0.08433956,0.084075786,-0.20122343,0.016566964,0.31046668,-0.25790662,-0.025956308,0.111595795,-0.048598584,-0.066124335,-0.33860973,-0.032309294,0.117249005,0.004004175,-0.050217748,0.0059400396,0.16399805,0.30531958,0.027088532,-0.1299746,-0.12367242,-0.22818254,-0.09296817,0.09525606,0.0030208684,-0.2450842,-0.038285606,0.0057296176,0.051056832,-0.0019855422,0.077481136,-0.08567714,0.2228744,0.08946913,0.2322222,-0.20839402,-0.10958562,0.14649595,0.018438224,0.14345011,-0.16440779,0.038057934,0.37203887,0.36053735,-0.38305676,0.12267385,-0.3155464,0.31749392,-0.010959032,0.0024422996,0.19399601,0.101823345,-0.036361884,-0.13553366,0.089633696,0.12868349,-0.053721678,-0.2691953,0.10804232,0.19562541,0.07953801,0.15278673,-0.033739556,-0.010998369,0.028611442,0.43989697,0.13617879,-0.1624908,0.16266459,0.20376551,-0.28429252,-0.04477146,-0.30591512,0.031806644,0.2556369,0.18612124,0.15890725,0.18667012,0.035062846,-0.15968709,-0.08950633,0.11789664,-0.04292432,-0.00035964078,0.026342457,-0.06962443,0.100221366,0.25788036,0.02160957,-0.02858479,-0.39367566,-0.124395065,0.11873572,0.047421914,-0.08630142,-0.10567735,0.16929615,-0.18880467,0.15488064,0.100925505,0.05211301,0.067451574,-0.38540885,-0.16642125,0.01721818,-0.0874231,-0.32045874,-0.089563936,0.068707764,0.014117998,-0.08940054,-0.2139558,-0.14200297,0.044865932,0.031406805,-0.29984924,-0.062498555,0.14524934,-0.052869104,0.16074495,0.06913347,0.17513838,-0.13665934,-0.21405521,-0.023658218,0.17954297,0.046736553,0.05114365,0.14791685,-0.058472354,-0.15971637,0.116656736,0.10905336,-0.029927135,0.055080883,-0.2547445,0.09981414,0.05763304,0.03423797,0.0033138886,0.23013985,-0.022221781,-0.05496363,-0.00230699,-0.34363347,-0.129559,0.08839321,0.16843109,0.00043518754,-0.21519677,0.21127993,0.006427053,-0.22507137,-0.008884696,0.34597751,-0.086176336,-0.3155825,0.1987251,0.027470177,0.036096886,-0.013985552,-0.34687397,0.19555025,-0.06945796,0.08213801,-0.18466681,-0.12715021,-0.0309678,0.14500338,0.09030251,-0.008748198,-0.15851107,-0.019853506,0.085155495,-0.0257609,0.13228366,-0.21618319,0.46924496,0.05282586,-0.18617588,-0.007575815,0.21445125,-0.1772527,0.1776362,-0.25879723,0.068035774,0.16617808,0.045493457,-0.23265803,-0.12193737,0.15050334,0.03690318,0.18847184,0.03412874
am,-0.0010490043,-0.074487865,-0.06640066,5.1524665e-05,-0.017746685,-0.1051298,-0.20089689,0.085316144,-0.059039835,-0.1596229,0.3039821,-0.11861252,-0.25894234,0.0006923203,-0.13760193,-0.21628281,0.22824241,0.05419266,-0.17104937,-0.031215178,0.042435132,-0.2772685,0.06519049,0.034557194,-0.04091785,0.1323679,-0.122945264,-0.07796955,0.0069141802,0.041592155,0.11361508,-0.023603246,0.047265273,-0.09161032,-0.034802638,-0.06549676,-0.17912588,-0.029915888,-0.065706015,0.016870085,-0.03462401,0.25158188,0.088328004,0.13398474,-0.13904391,-0.048599895,0.29773572,-0.1678141,0.23379412,0.04673678,0.02979295,-0.16998757,-0.1154395,0.092822604,-0.1265652,0.014833123,0.28478265,-0.26189896,-0.019425578,0.1435953,-0.026618069,-0.07860013,-0.27256346,0.0025745574,0.070832156,-0.004290979,0.0043132394,0.041251298,0.14999391,0.22700536,0.016119432,-0.08524791,-0.15003675,-0.25795624,-0.116363145,0.08482787,0.070067175,-0.15799505,-0.054080155,-0.03895705,0.1084469,0.0018313417,0.06765241,-0.10881932,0.2372484,0.05064701,0.17888355,-0.20708868,-0.08645231,0.19051673,-0.026186185,0.13571054,-0.1374776,0.026158262,0.31049618,0.3211672,-0.36927867,0.13601871,-0.31572393,0.29248232,-0.012493434,0.040379014,0.13050953,0.047065683,-0.0170011,-0.10001631,0.025548778,0.14772257,-0.124753095,-0.2372887,0.14315882,0.15826961,0.08057321,0.0860495,-0.057119485,0.019093834,0.031345475,0.4412306,0.099778645,-0.13289039,0.11464823,0.19427665,-0.26956135,-0.08296925,-0.26199335,0.0048012254,0.20954789,0.19103678,0.19441071,0.17217402,0.03435247,-0.16468577,-0.13744597,0.07977799,-0.037147332,-0.022766877,0.01818165,-0.038263723,0.05785027,0.19463985,0.015777515,-0.063639864,-0.33392704,-0.14546022,0.09659504,0.027850898,-0.09535406,-0.024232421,0.2062624,-0.1315412,0.20626268,0.09739109,-0.016488329,0.07818149,-0.35836816,-0.15158872,-0.009786946,-0.063155204,-0.26052555,-0.006880735,0.067580976,0.0078514,-0.122373015,-0.18704809,-0.10274149,0.09549341,0.08134549,-0.26738045,-0.11091602,0.15724249,-0.06377895,0.08652064,0.056035705,0.07567047,-0.084846325,-0.1994376,0.013504785,0.20995449,0.034207273,0.07327592,0.13974701,-0.11723808,-0.16067646,0.092551515,0.07278429,-0.05279799,0.039123256,-0.22074671,0.045004345,0.093294084,0.030012587,0.051689014,0.2048353,-0.006934283,-0.024223158,0.020263167,-0.2793631,-0.1186862,0.050859414,0.18578428,0.05519954,-0.18411759,0.21705864,5.0581933e-05,-0.14708476,0.053504314,0.36639822,-0.12041747,-0.27972913,0.1402236,0.01783773,-0.014587002,0.017948572,-0.34150264,0.20963691,-0.0046929265,0.08338491,-0.12530544,-0.122905165,-0.064404376,0.11680141,0.09840878,-0.029286195,-0.08801221,-0.007796804,0.07061327,-0.023189211,0.1333694,-0.20778094,0.46958405,0.036999155,-0.09950629,0.0051610377,0.12739275,-0.16883215,0.12009395,-0.20334865,0.020199545,0.15728113,0.056372292,-0.20203143,-0.10787008,0.109577805,0.002575735,0.17514212,0.048404116
american,-0.000770127,-0.009407217,-0.007082153,-0.005428644,0.0012406588,-0.011387076,-0.01912546,0.01777928,-0.014448112,-0.011093456,0.032058444,-0.008841345,-0.030732377,0.0014432648,-0.019696748,-0.023043321,0.02287166,0.0021864544,-0.020040333,0.002674994,0.006018869,-0.035076633,0.0059696534,0.0031133958,-0.0023827937,0.020502128,-0.02149565,-0.0017553131,-0.00201178,0.011184812,0.012686574,-0.0017731133,0.0058511053,-0.0074677966,-0.005367482,-0.009006901,-0.014120702,-0.0036969378,-0.013920628,0.0035002008,-0.0004166432,0.027288677,0.012301868,0.010745233,-0.010618314,-0.0051735397,0.017295811,-0.018834176,0.021161523,0.0014482344,-0.004951462,-0.01389326,-0.011735734,0.009701587,-0.018072374,-0.0035565745,0.028878734,-0.027710875,-0.0021180054,0.011007501,0.0049692965,-0.0059489235,-0.031865817,-0.0022987803,0.01359735,-0.0017859214,-0.0035273568,-0.002036562,0.019384786,0.024361854,0.0030220519,-0.014099103,-0.020704255,-0.0227871,-0.0034541097,0.011130329,0.0054349527,-0.022570442,-0.0028657056,0.0003925768,0.00048814708,-0.0040833973,0.005349449,-0.005895736,0.023381025,0.011113481,0.017247971,-0.021935863,-0.013937406,0.012877386,0.0025295403,0.0114100985,-0.017099628,0.001597519,0.030172033,0.030546924,-0.037017692,0.01212712,-0.027200768,0.027948413,5.4375323e-06,-0.0032480338,0.014254204,0.006711124,-0.0054744515,-0.015147009,0.0049969386,0.007728903,-0.012287295,-0.029431663,0.0066913594,0.0120442705,0.011398057,0.016010998,-0.0012636682,0.0011219052,0.0049902895,0.040143475,0.015176232,-0.016639449,0.013502079,0.019827383,-0.02540957,-0.0040843626,-0.034364194,0.00092197617,0.022425646,0.021408603,0.0112928245,0.020129228,0.0024667797,-0.019056931,-0.0053277146,0.01173805,-0.002925152,-0.000115358525,0.003894468,-0.00029881473,0.012828815,0.022528093,-0.0036705567,-0.0014383929,-0.037295647,-0.013460474,0.011988971,0.0032835356,-0.010213197,-0.012055559,0.013704072,-0.020412177,0.013047488,0.0074065025,1.2781771e-05,0.008449432,-0.030635165,-0.015213113,-0.0017968026,-0.004075358,-0.029990245,-0.0069493838,0.007932046,0.00042578456,-0.009306879,-0.025016693,-0.011457133,0.00982874,0.003800199,-0.032541636,-0.010928623,0.020793447,-0.004767834,0.014819261,0.0024373962,0.019563686,-0.0138771655,-0.01719661,5.824172e-05,0.015879424,0.0026717347,0.0075056045,0.019897697,-0.010805264,-0.009577828,0.008692792,0.014677073,0.0012007639,0.0078082653,-0.026162436,0.010515614,0.008911195,0.0013126315,0.0018388286,0.028309802,-0.0022874053,-0.00086747855,0.0034482721,-0.026051674,-0.014388015,0.008026039,0.018662468,-0.0033820414,-0.01904956,0.019986046,-0.00026510717,-0.021134984,-0.005722202,0.036908742,-0.014072457,-0.029322676,0.019706983,0.004324314,-0.001494185,-0.00095065444,-0.034106642,0.022262255,-0.007012182,0.009139855,-0.019205734,-0.0132367015,0.0030427345,0.013695814,0.008672413,-0.004900071,-0.012831432,-0.0063880607,0.005250471,-0.0019726777,0.011564413,-0.018059986,0.047187682,0.0031009726,-0.019122109,0.0014867058,0.020283947,-0.018188292,0.018835941,-0.019978998,0.0012093897,0.016082417,0.009333612,-0.024378596,-0.012842609,0.0149616,0.0019065881,0.012257893,0.006656452
an,0.015577729,-0.16299272,-0.041765243,-0.07850213,0.020248856,-0.12991796,-0.33757722,0.15328428,-0.13701278,-0.15263589,0.39878884,-0.18296613,-0.38723797,0.008468002,-0.18338913,-0.17372516,0.33683896,0.04053367,-0.19010186,-0.0936492,0.123346485,-0.32638207,0.013206921,0.025080888,-0.0139380945,0.12969036,-0.20334767,-0.019149007,0.01007517,0.18298511,0.13363823,0.00468688,0.06485958,-0.10605431,-0.01324151,-0.23225562,-0.09054928,-0.044442263,-0.15644334,-0.05788959,0.0119299125,0.3559924,0.09314093,0.18063861,-0.1560162,-0.07440801,0.22973906,-0.1598725,0.22857162,0.014929562,-0.0951207,-0.20543848,-0.047967117,0.118568055,-0.20543669,0.052220114,0.37137038,-0.18462256,-0.063144885,0.1040466,-0.006516472,-0.07597231,-0.35285076,-0.00019845954,0.07251662,-0.02971,-0.1278316,-0.040736698,0.16704866,0.344112,-0.004783418,-0.12216393,-0.14971033,-0.17751871,0.013425079,0.1390309,-0.011563588,-0.35063213,-0.06064136,-0.014887566,-0.020479918,-0.061366834,0.089277595,-0.08500097,0.20058335,0.07825982,0.19104949,-0.2945358,-0.0731833,0.12053004,-0.0022567224,0.19509718,-0.24517478,0.022909805,0.32137802,0.40507364,-0.29087788,0.101784445,-0.32690674,0.27153522,0.07158356,0.053490732,0.20880745,0.118328124,-0.020101126,-0.16993414,0.103385955,0.03649652,-0.06811196,-0.2726453,0.048351303,0.12905568,0.076383196,0.17033805,-0.032371063,-0.03345294,-0.029187672,0.39382154,0.12960732,-0.19503723,0.17674178,0.24452055,-0.24618964,-0.011201993,-0.3610365,0.0029116895,0.3205522,0.1956871,0.1051952,0.20454149,0.020151826,-0.123639695,0.007331855,0.1298048,-0.051712796,-0.0033661225,0.07562902,-0.061013743,0.10088028,0.289707,-0.025097258,-0.03400788,-0.41722846,-0.09713928,0.18803068,0.005141883,-0.09207618,-0.09684874,0.15691334,-0.14703181,0.16108589,0.13423608,0.036529277,0.07495611,-0.2950141,-0.16533653,0.051815584,-0.05504569,-0.31318223,-0.15502723,0.089130625,0.020797063,-0.12746115,-0.23186915,-0.18898232,-0.0026736292,0.0059136096,-0.25252396,-0.032113414,0.10526058,0.03540122,0.20680666,0.105290055,0.24089195,-0.10455661,-0.24450864,-0.024456125,0.13398299,0.08170296,0.10965877,0.17790496,-0.08310571,-0.13277708,0.14554518,0.13931385,-0.0146305375,0.075577885,-0.21909428,0.12553568,0.060321644,-0.00050001545,0.015508989,0.2711302,-0.005881366,-0.014352263,0.016257262,-0.30005425,-0.12400689,0.03940861,0.16995369,-0.0025957918,-0.31928086,0.25052047,0.032225676,-0.22824594,-0.12682608,0.36675933,-0.09717827,-0.40391392,0.21661925,-0.015847268,0.0064597977,0.010889012,-0.34890446,0.24706292,-0.09430774,0.07960856,-0.17275114,-0.16284794,0.106849015,0.115353234,0.030960847,-0.08651126,-0.20817956,-0.0007572466,0.13570891,0.009684663,0.092106216,-0.2562356,0.42414075,0.040701464,-0.1823862,-0.05719937,0.25996804,-0.25223678,0.1936982,-0.22616246,0.03325375,0.19390023,0.07364707,-0.21564706,-0.07788435,0.18853612,0.046989195,0.22639507,0.019906772
and,0.023321683,-0.09675425,-0.051459756,-0.041358393,-0.0055753593,-0.06798081,-0.27072367,0.11447025,-0.14001474,-0.15989701,0.35256878,-0.13870467,-0.35292086,0.056989577,-0.10145382,-0.22775841,0.2628419,0.059620805,-0.19177076,-0.02394431,0.07541414,-0.29262012,0.029102374,0.008587568,-0.0026498362,0.17008612,-0.14946163,-0.038174707,-0.00062997366,0.15728728,0.09827504,-0.0036633485,0.07331303,-0.09469425,-0.0501254,-0.098019645,-0.17807682,-0.06209077,-0.11385466,0.025644599,-0.034137215,0.33072937,0.075922474,0.1289507,-0.19277397,-0.045502517,0.26708737,-0.12739281,0.21294348,0.03529939,-0.0111154625,-0.17249165,-0.117690235,0.107113235,-0.16498822,0.0055040293,0.33817855,-0.21568781,-0.038878,0.0886612,-0.051792137,-0.035770793,-0.3238057,0.0042250976,0.09530964,0.026276316,-0.038427718,0.0019975482,0.19347589,0.2233695,-0.0077388156,-0.12705158,-0.12801978,-0.22577557,-0.057559446,0.10876111,0.016986905,-0.24718468,-0.07017918,-0.01872084,0.02278309,-0.014599381,0.034620207,-0.08381658,0.22769453,0.08787207,0.26748276,-0.18855214,-0.05448962,0.13526894,0.008077133,0.1756056,-0.1971607,0.08588808,0.3307618,0.37915558,-0.3444623,0.10205178,-0.30053222,0.31593364,0.019588549,0.053627353,0.14558984,0.07732598,-0.003930275,-0.11557704,-0.004943633,0.11139545,-0.07957994,-0.21843278,0.15878241,0.18489845,0.12241662,0.14583121,-0.0026054545,0.012649157,0.02241844,0.4120042,0.10167841,-0.20781729,0.13657987,0.18425001,-0.26484382,-0.042605612,-0.2578079,0.0017143069,0.23309314,0.19014601,0.08216828,0.20581183,0.049306195,-0.10440034,-0.13469194,0.11064696,-0.07670526,0.004153719,0.028903417,-0.07624478,0.100175865,0.27724716,-0.032165263,-0.06789531,-0.4090036,-0.11539055,0.1628805,-0.025913656,-0.04422064,-0.09536331,0.17088628,-0.16689432,0.10672281,0.11326365,0.0036975504,0.07101972,-0.34461135,-0.11899695,0.06694651,-0.03542307,-0.26697946,-0.07222836,0.032314118,-0.03148814,-0.10542364,-0.1676898,-0.17055744,0.07859381,-0.0025342766,-0.30502722,-0.08047744,0.12109428,-0.04118119,0.13975348,0.05707082,0.17406003,-0.09588176,-0.22743683,-0.053587437,0.18869756,0.02136638,0.060623284,0.19583577,-0.083426386,-0.10322123,0.09036208,0.06739018,-0.051541682,-0.008135729,-0.19259125,0.045914955,0.08932555,0.039706472,-0.026775403,0.2455505,0.0047297413,-0.05072848,0.06326622,-0.3294973,-0.053345934,0.057837684,0.17777984,0.010330323,-0.21081217,0.22379744,0.014532096,-0.17966042,-0.02582959,0.35301617,-0.10586002,-0.28711152,0.21140647,0.0019204527,0.03264686,-0.012257839,-0.33189535,0.22450313,-0.025488531,0.09051705,-0.11844033,-0.12202341,-0.042425126,0.108755454,0.03656643,-0.054579157,-0.115818754,0.0055651804,0.08880728,0.01995012,0.0935477,-0.16782346,0.434197,0.03198406,-0.17389366,-0.044973135,0.23226294,-0.108791955,0.19088954,-0.24484907,-0.00331605,0.19744702,0.015447504,-0.16600756,-0.10297605,0.16052352,0.045597542,0.19819573,0.091187075
angels,0.004185786,-0.013629122,-0.0085109025,-0.0045299693,0.0020623743,-0.010504314,-0.028797532,0.018561766,-0.014071542,-0.019843308,0.043128874,-0.023983095,-0.034072697,-0.0017444382,-0.02087584,-0.017322745,0.033369735,0.00502337,-0.014044493,-0.0032507828,0.0064613675,-0.033390418,0.0068791937,0.0019795347,-0.0072825993,0.019211566,-0.018535458,-0.010764497,0.003227661,0.0071823536,0.013755427,0.0012604293,0.015407027,-0.015382444,-0.004715918,-0.011739221,-0.016554147,-0.00038518265,-0.014359217,-0.0058265063,-0.0023118572,0.026034765,0.011036611,0.013838223,-0.01840704,-0.0055950996,0.032157652,-0.01865752,0.024552112,0.0075077876,-0.0010473384,-0.017473353,-0.005410288,0.009719088,-0.024122225,0.00063868763,0.035957444,-0.029574245,0.0018758565,0.010891887,-0.002915242,-0.0058890763,-0.036669612,-0.009712697,0.012876503,-0.0055675404,-0.008492604,0.0007251515,0.019279405,0.034972254,0.0010124163,-0.0141470805,-0.016589647,-0.027129136,-0.014428046,0.01041029,0.005409306,-0.022938568,-0.0035312308,-0.0026752544,0.004483968,-0.0007385171,0.011343817,-0.009261191,0.02613344,0.00869559,0.022290193,-0.028411994,-0.015996795,0.020474281,-0.0003310386,0.0164811,-0.017268369,0.0046544643,0.041154902,0.0357533,-0.04742189,0.012610412,-0.030088618,0.037691347,-0.0019237067,0.00038738007,0.024200296,0.010537023,-0.0042496934,-0.019343987,0.009212732,0.010444274,-0.004960365,-0.034766175,0.006868665,0.02307933,0.012651588,0.010646842,-0.0036277915,-0.004764303,0.008419311,0.04942664,0.0146058975,-0.01707437,0.01651249,0.023590894,-0.030850234,-0.01096583,-0.029224887,2.6395053e-05,0.027949432,0.020582926,0.018576618,0.017885713,0.0008420946,-0.017355949,-0.004639506,0.00853114,-0.0025029564,0.0035091243,-0.0022341523,0.00025686336,0.005795689,0.029266907,0.0034782025,-0.0021259326,-0.044181876,-0.015746988,0.009476322,0.004842108,-0.0148804765,-0.0063025146,0.018190533,-0.026822388,0.021091115,0.005839778,0.0075756856,0.005801418,-0.03992413,-0.022197142,0.002518145,-0.005625534,-0.037383463,-0.0045579826,0.0053808047,0.008754213,-0.012489146,-0.02919639,-0.018649407,0.010049302,0.0008802652,-0.031634327,-0.010899004,0.017781906,-0.0022890056,0.019349264,0.010454466,0.012947902,-0.014029272,-0.022433586,-0.0016421579,0.018515998,0.005196251,0.0044985893,0.013086822,-0.008358117,-0.01778134,0.018916067,0.01750365,-0.0017645267,0.0073396387,-0.027532613,0.012755178,0.009564633,0.0010583253,-0.001644436,0.01885607,-0.00532622,-0.006765286,-0.00044696024,-0.03427775,-0.015000635,0.012481366,0.018940136,0.002828161,-0.021852676,0.021444757,0.0025632747,-0.028511679,0.00036233192,0.036854655,-0.010610279,-0.032608464,0.019141153,0.00020080034,0.004849953,-0.003182033,-0.038381096,0.023602,-0.004892327,0.012371236,-0.024293311,-0.012381795,-0.003561306,0.011005555,0.017094728,0.0008384051,-0.01804166,-0.004879614,0.013305507,-0.008539571,0.013160522,-0.023435567,0.05093436,0.0058412305,-0.017769316,0.004299211,0.022119291,-0.022151856,0.018839782,-0.02480114,0.013191402,0.014667617,0.002010606,-0.027969042,-0.010401478,0.01946434,0.0038620639,0.022689264,0.0063688387
another,0.0140083525,-0.10360685,-0.04766003,-0.0013646046,0.009016592,-0.09122513,-0.18702278,0.085271604,-0.07546835,-0.14491102,0.31008884,-0.13204673,-0.2684468,-0.008918193,-0.15688916,-0.16831215,0.23958655,0.04505332,-0.15393029,-0.041543808,0.059609734,-0.25445148,0.060744338,0.03647077,-0.04233191,0.13559283,-0.12734449,-0.05199163,0.016302677,0.071049355,0.1101822,-0.022212725,0.06544156,-0.10697906,-0.01760978,-0.11546203,-0.13958502,-0.02067952,-0.10573458,-0.03206513,-0.020361897,0.2338363,0.081108406,0.1374713,-0.11143784,-0.05258304,0.24533206,-0.15939815,0.21792608,0.05084365,-0.023386953,-0.15694405,-0.07205201,0.097288914,-0.1595089,0.007950351,0.27886632,-0.2201721,-0.0398949,0.12635504,-0.019123368,-0.06501467,-0.29837307,-0.039610058,0.08579359,-0.018220335,-0.03173924,0.019462747,0.13416821,0.25495425,0.012970018,-0.09731408,-0.12539442,-0.21885219,-0.089770205,0.08097896,0.043254443,-0.18542606,-0.03909992,-0.01551219,0.06326892,-0.0091972845,0.07536497,-0.078433834,0.20492092,0.045754407,0.14572713,-0.21204197,-0.09256551,0.15629429,0.006893808,0.13664424,-0.14510643,0.019686371,0.31594953,0.31025276,-0.33164144,0.12948588,-0.2856922,0.24393988,0.015845489,0.007583148,0.15316947,0.07213973,-0.04138935,-0.12252335,0.058989733,0.09862752,-0.10105294,-0.25003698,0.09559472,0.14485058,0.06316588,0.10093062,-0.026451167,0.0049918415,0.029691054,0.42192572,0.121240005,-0.11391584,0.13749774,0.20094906,-0.23264681,-0.05807341,-0.25830087,-0.0001889717,0.23083514,0.17513393,0.17349412,0.16696365,0.0045201,-0.14844023,-0.06875446,0.080746524,-0.026645673,-0.015900917,0.01777592,-0.018737057,0.058692105,0.18470563,0.0027185422,-0.023442829,-0.33258557,-0.116676845,0.097380914,0.039169163,-0.09542329,-0.048202038,0.16120948,-0.14544943,0.16215743,0.09060096,0.021062106,0.07464439,-0.3197774,-0.15274192,-0.005154722,-0.0784756,-0.26717976,-0.047759186,0.071260065,0.036673874,-0.09486013,-0.1891556,-0.11583269,0.060617,0.05832396,-0.2431993,-0.06661968,0.15917753,-0.033651132,0.114196196,0.045788374,0.11561307,-0.10267849,-0.18466797,0.0026582032,0.1868107,0.04958714,0.057335164,0.1392782,-0.08939728,-0.13793314,0.110588476,0.115001574,-0.030147213,0.074571714,-0.23929764,0.08112449,0.07635423,0.01714961,0.036253225,0.18887883,0.012215541,-0.026767852,0.0077245594,-0.2635576,-0.12457647,0.061447006,0.17568251,0.033223834,-0.19237901,0.17597665,0.01857515,-0.16784705,0.0055873943,0.31031197,-0.102588505,-0.28677163,0.1411171,0.0033041488,-0.010138691,0.014171599,-0.30733144,0.19222265,-0.035575498,0.08507196,-0.15299733,-0.109823436,-0.024079278,0.1032029,0.10143823,-0.023071388,-0.103681535,-0.002954837,0.06795592,-0.0369044,0.122762784,-0.20498742,0.41646904,0.054736603,-0.12505414,0.0003934993,0.1497796,-0.17941597,0.119045295,-0.21000351,0.03525736,0.15554449,0.052496325,-0.20106673,-0.09652465,0.12498466,0.0060695983,0.16602737,0.027231066
any,-0.0030642464,-0.073823236,-0.024088314,0.0009880959,-0.020655075,-0.10358087,-0.1452894,0.04578103,-0.027037265,-0.12305089,0.24687773,-0.102722,-0.18560413,-0.011886888,-0.14458331,-0.13568379,0.17377327,0.035335146,-0.10027459,-0.029395683,0.022785129,-0.18323123,0.06265458,0.027840447,-0.049459238,0.08836372,-0.07205534,-0.058014076,0.026260205,0.023305511,0.084374554,-0.023865461,0.044592116,-0.09622691,-0.0035911938,-0.07852317,-0.10267275,-0.015887797,-0.053063933,-0.034211595,-0.046508264,0.15755625,0.06278952,0.10953047,-0.08900984,-0.047291066,0.23649968,-0.13291834,0.1767679,0.039956804,0.016789366,-0.12451055,-0.051790413,0.07628223,-0.098153494,0.02108587,0.19044071,-0.19288181,-0.018802224,0.09427633,-0.027158875,-0.05416264,-0.2050449,-0.028126147,0.0512935,-0.008083793,0.009741871,0.040704798,0.08523412,0.1818483,0.008001545,-0.055748522,-0.08814305,-0.19350031,-0.103081636,0.05064477,0.06747846,-0.113167904,-0.033864908,-0.010068739,0.08536745,0.008020104,0.07708877,-0.054406367,0.15791997,0.024152214,0.10409519,-0.1647451,-0.07278715,0.15393937,-0.009494836,0.094454914,-0.07536269,0.009342949,0.25168294,0.2161082,-0.26865864,0.11774712,-0.22612542,0.20698102,-0.023703203,0.015861215,0.104538046,0.057306584,-0.025848389,-0.084351465,0.06591839,0.084672175,-0.07691579,-0.18002713,0.09257571,0.109719954,0.032216717,0.06399933,-0.055249576,0.014633069,0.034284405,0.34065494,0.08760486,-0.06576281,0.09077018,0.14845276,-0.1917687,-0.06751305,-0.17648952,-0.0023713256,0.1584992,0.13008066,0.18852474,0.10843332,0.012257902,-0.13796003,-0.08273888,0.05950351,1.0732847e-05,-0.030234324,-0.004744662,-0.01159903,0.035630748,0.11824329,0.024662163,-0.014178738,-0.21619503,-0.10404366,0.037285455,0.06101116,-0.0947479,0.0021326484,0.13646926,-0.1124749,0.15082222,0.07057387,0.011088157,0.047228273,-0.26370403,-0.12186621,-0.010279911,-0.07231337,-0.19183753,0.009834669,0.07506166,0.05205821,-0.065320015,-0.14617695,-0.062328126,0.053212985,0.0751842,-0.19172426,-0.053034373,0.13170005,-0.041669767,0.043648154,0.046808977,0.044358175,-0.06660003,-0.12512353,0.014530672,0.1598575,0.043332953,0.048192017,0.09323332,-0.09094561,-0.1348622,0.08504012,0.073226996,-0.029609624,0.051968437,-0.18810827,0.03712432,0.06227991,0.0150434505,0.042089798,0.13197541,-0.012351159,-0.019275716,-0.0026517531,-0.19849387,-0.11326758,0.044057008,0.13505511,0.03538474,-0.124550916,0.14033464,-0.0039051087,-0.108208954,0.048022028,0.2412799,-0.07439035,-0.21400906,0.082745604,-0.0028499244,-0.02080957,0.0067737545,-0.23731302,0.14763474,-0.0065397406,0.06396187,-0.113498375,-0.08023824,-0.05537229,0.07658491,0.08893854,-0.0111825,-0.06578307,-0.0031024124,0.050597616,-0.03564713,0.10810338,-0.18238032,0.3388323,0.02724967,-0.06576957,0.026054401,0.078838214,-0.14637218,0.058153763,-0.15740171,0.04519103,0.102650546,0.029856073,-0.15883602,-0.08626926,0.09195949,-0.0034625633,0.13826267,0.025855808
anymore,0.0016756435,-0.042409606,-0.027430603,0.0029062247,-0.008872996,-0.056284256,-0.10063559,0.036724024,-0.033034515,-0.08284664,0.1616741,-0.07342236,-0.13463034,-0.004371451,-0.08619573,-0.09802988,0.124657966,0.023493737,-0.0824697,-0.022377776,0.026942128,-0.13496107,0.036312144,0.024331562,-0.027525853,0.07212664,-0.063601136,-0.033113085,0.009650611,0.023502326,0.06280956,-0.010106855,0.026340375,-0.05386996,-0.010031621,-0.051003695,-0.07232167,-0.009806376,-0.04771994,-0.0063162977,-0.018911581,0.121451974,0.039875712,0.0718423,-0.06813609,-0.029659783,0.14839153,-0.09130679,0.11647531,0.022057313,0.0031894194,-0.08615888,-0.0510042,0.057184115,-0.07239651,0.0062284456,0.15067281,-0.12741235,-0.018976318,0.07241261,-0.01702728,-0.03964289,-0.14820924,-0.021440115,0.037223645,-0.008956617,-0.0035719469,0.019576218,0.06500066,0.13073805,-0.0018552006,-0.042123675,-0.0721909,-0.12939182,-0.06438809,0.047945157,0.04193406,-0.08719789,-0.025170552,-0.01283099,0.047838144,0.0052773077,0.04150621,-0.047256578,0.1175796,0.026608411,0.077072605,-0.113606624,-0.0467775,0.09597143,-0.005520404,0.07021771,-0.070364416,0.012782034,0.16895549,0.16681188,-0.17929333,0.080348365,-0.157489,0.14382856,-0.00450753,0.011863085,0.072468154,0.036735594,-0.015822997,-0.057061292,0.03647513,0.0578088,-0.062195264,-0.121275395,0.061565287,0.06508689,0.03215353,0.0483162,-0.022491446,0.010057924,0.014682574,0.23128182,0.056209203,-0.05968846,0.07096382,0.10555892,-0.12880671,-0.04313978,-0.12683715,0.00426684,0.12029889,0.09534575,0.10991204,0.08360435,0.013070412,-0.08430326,-0.05645397,0.032389987,-0.010037266,-0.013438767,0.0014081955,-0.011011133,0.025992442,0.10023985,0.0038785,-0.016530776,-0.16833882,-0.06828539,0.048546232,0.029346263,-0.051920887,-0.013353048,0.10044094,-0.07067013,0.10491641,0.048810355,0.0017831298,0.03592088,-0.18326497,-0.0822167,-0.003711148,-0.04425527,-0.14057365,-0.0063333446,0.041558616,0.026127057,-0.049365036,-0.10254554,-0.049575724,0.03340914,0.04273307,-0.12756155,-0.042144377,0.08362159,-0.018824441,0.04427128,0.03320833,0.049259853,-0.044796366,-0.09830397,0.009158971,0.102804005,0.023429053,0.03621377,0.06881288,-0.059472233,-0.08486909,0.060853932,0.052813794,-0.018501041,0.032204997,-0.12939431,0.03444557,0.041754194,0.010451465,0.031458408,0.10015335,-0.0019176042,-0.014168151,0.003142687,-0.14792417,-0.065470174,0.032129675,0.09534027,0.018040087,-0.092407376,0.10078806,0.0021390668,-0.08451312,0.019796122,0.17090881,-0.0645671,-0.14829044,0.07056826,-0.00050043786,-0.013584375,0.011532819,-0.17381376,0.10377538,-0.011171747,0.04851157,-0.07437008,-0.06173691,-0.018982459,0.052999493,0.057144176,-0.010414824,-0.05232467,-0.0049933153,0.046426926,-0.019835198,0.068727225,-0.11919481,0.23259357,0.023112787,-0.048659872,0.010312688,0.062193003,-0.095177315,0.05258578,-0.10596366,0.022170965,0.078960456,0.02456308,-0.10637381,-0.054471456,0.058636058,-0.0035630313,0.09597074,0.01942625
